{"learner":{"attributes":{"scikit_learn":"{\"_estimator_type\": \"regressor\"}"},"feature_names":["age","height_in_cm","contract_years_left","goals_per_match","assists_per_match","matches_played","position_Defender","position_Goalkeeper","position_Midfield","position_Missing","foot_left","foot_right"],"feature_types":["int","float","float","float","float","float","i","i","i","i","i","i"],"gradient_booster":{"model":{"cats":{"enc":[],"feature_segments":[],"sorted_idx":[]},"gbtree_model_param":{"num_parallel_tree":"1","num_trees":"300"},"iteration_indptr":[0,1,2,3,4,5,6,7,8,9,10,11,12,13,14,15,16,17,18,19,20,21,22,23,24,25,26,27,28,29,30,31,32,33,34,35,36,37,38,39,40,41,42,43,44,45,46,47,48,49,50,51,52,53,54,55,56,57,58,59,60,61,62,63,64,65,66,67,68,69,70,71,72,73,74,75,76,77,78,79,80,81,82,83,84,85,86,87,88,89,90,91,92,93,94,95,96,97,98,99,100,101,102,103,104,105,106,107,108,109,110,111,112,113,114,115,116,117,118,119,120,121,122,123,124,125,126,127,128,129,130,131,132,133,134,135,136,137,138,139,140,141,142,143,144,145,146,147,148,149,150,151,152,153,154,155,156,157,158,159,160,161,162,163,164,165,166,167,168,169,170,171,172,173,174,175,176,177,178,179,180,181,182,183,184,185,186,187,188,189,190,191,192,193,194,195,196,197,198,199,200,201,202,203,204,205,206,207,208,209,210,211,212,213,214,215,216,217,218,219,220,221,222,223,224,225,226,227,228,229,230,231,232,233,234,235,236,237,238,239,240,241,242,243,244,245,246,247,248,249,250,251,252,253,254,255,256,257,258,259,260,261,262,263,264,265,266,267,268,269,270,271,272,273,274,275,276,277,278,279,280,281,282,283,284,285,286,287,288,289,290,291,292,293,294,295,296,297,298,299,300],"tree_info":[0,0,0,0,0,0,0,0,0,0,0,0,0,0,0,0,0,0,0,0,0,0,0,0,0,0,0,0,0,0,0,0,0,0,0,0,0,0,0,0,0,0,0,0,0,0,0,0,0,0,0,0,0,0,0,0,0,0,0,0,0,0,0,0,0,0,0,0,0,0,0,0,0,0,0,0,0,0,0,0,0,0,0,0,0,0,0,0,0,0,0,0,0,0,0,0,0,0,0,0,0,0,0,0,0,0,0,0,0,0,0,0,0,0,0,0,0,0,0,0,0,0,0,0,0,0,0,0,0,0,0,0,0,0,0,0,0,0,0,0,0,0,0,0,0,0,0,0,0,0,0,0,0,0,0,0,0,0,0,0,0,0,0,0,0,0,0,0,0,0,0,0,0,0,0,0,0,0,0,0,0,0,0,0,0,0,0,0,0,0,0,0,0,0,0,0,0,0,0,0,0,0,0,0,0,0,0,0,0,0,0,0,0,0,0,0,0,0,0,0,0,0,0,0,0,0,0,0,0,0,0,0,0,0,0,0,0,0,0,0,0,0,0,0,0,0,0,0,0,0,0,0,0,0,0,0,0,0,0,0,0,0,0,0,0,0,0,0,0,0,0,0,0,0,0,0,0,0,0,0,0,0,0,0,0,0,0,0,0,0,0,0,0,0,0,0,0,0,0,0],"trees":[{"base_weights":[1.01014E4,-5.7838375E5,7.60283E6,-8.1262725E5,2.9093702E6,3.4230202E6,2.1025022E7,-1.2468805E6,-1.2985457E5,2.6640114E7,1.5879431E6,9.871504E5,9.324962E6,1.8699812E7,4.502859E7,1.2542089E5,-6.2508945E4,-3.456333E4,9.092696E4,8.0531106E5,1.9410304E6,4.234426E5,1.1589077E4,2.0243578E4,1.5968998E5,1.023677E6,3.6127972E5,1.5294149E6,7.937253E5,1.7402166E6,3.8870498E6],"categories":[],"categories_nodes":[],"categories_segments":[],"categories_sizes":[],"default_left":[0,0,0,0,0,0,0,0,0,0,0,0,0,0,0,0,0,0,0,0,0,0,0,0,0,0,0,0,0,0,0],"id":0,"left_children":[1,3,5,7,9,11,13,15,17,19,21,23,25,27,29,-1,-1,-1,-1,-1,-1,-1,-1,-1,-1,-1,-1,-1,-1,-1,-1],"loss_changes":[1.1174982E17,1.8965373E16,1.0085591E17,6.4489256E15,4.5772394E16,1.9729538E16,2.2990273E16,1.6781726E14,9.251961E15,9.254469E15,1.2922335E16,1.2489E15,9.237448E15,1.2647562E16,9.669294E15,0E0,0E0,0E0,0E0,0E0,0E0,0E0,0E0,0E0,0E0,0E0,0E0,0E0,0E0,0E0,0E0],"parents":[2147483647,0,0,1,1,2,2,3,3,4,4,5,5,6,6,7,7,8,8,9,9,10,10,11,11,12,12,13,13,14,14],"right_children":[2,4,6,8,10,12,14,16,18,20,22,24,26,28,30,-1,-1,-1,-1,-1,-1,-1,-1,-1,-1,-1,-1,-1,-1,-1,-1],"split_conditions":[3.1150684E0,2.01E2,9.8E1,8.219178E-2,2.8E1,3.3E1,4.7041097E0,1.8E1,5.4E1,2.42E2,3.1E1,6.4102565E-3,2.1E1,2.4E1,2.1E-1,1.2542089E5,-6.2508945E4,-3.456333E4,9.092696E4,8.0531106E5,1.9410304E6,4.234426E5,1.1589077E4,2.0243578E4,1.5968998E5,1.023677E6,3.6127972E5,1.5294149E6,7.937253E5,1.7402166E6,3.8870498E6],"split_indices":[2,5,5,2,0,5,2,0,5,5,0,3,0,0,3,0,0,0,0,0,0,0,0,0,0,0,0,0,0,0,0],"split_type":[0,0,0,0,0,0,0,0,0,0,0,0,0,0,0,0,0,0,0,0,0,0,0,0,0,0,0,0,0,0,0],"sum_hessian":[2.5008E4,2.321E4,1.798E3,2.175E4,1.46E3,1.372E3,4.26E2,1.3294E4,8.456E3,7.6E1,1.384E3,9.72E2,4E2,3.9E2,3.6E1,1.1E1,1.3283E4,6.565E3,1.891E3,4.2E1,3.4E1,2.27E2,1.157E3,7.7E2,2.02E2,6.2E1,3.38E2,7.3E1,3.17E2,2.9E1,7E0],"tree_param":{"num_deleted":"0","num_feature":"12","num_nodes":"31","size_leaf_vector":"1"}},{"base_weights":[3.5075367E4,-5.579445E5,7.7003625E6,-7.717844E5,2.6634115E6,3.3063355E6,2.1519854E7,-1.1932876E6,-1.3305589E5,1.4896037E7,5.7661075E5,8.032272E5,8.612237E6,2.071544E7,6.5359295E6,1.292206E5,-5.981735E4,-3.389026E4,8.2644445E4,1.5251098E6,5.430487E5,1.384718E5,-3.5233293E4,-4.966755E3,1.009494E5,9.1733044E5,3.3605072E5,7.9016044E5,1.4683992E6],"categories":[],"categories_nodes":[],"categories_segments":[],"categories_sizes":[],"default_left":[0,0,0,0,0,0,0,0,0,0,0,0,0,0,0,0,0,0,0,0,0,0,0,0,0,0,0,0,0],"id":1,"left_children":[1,3,5,7,9,11,13,15,17,19,21,23,25,27,-1,-1,-1,-1,-1,-1,-1,-1,-1,-1,-1,-1,-1,-1,-1],"loss_changes":[1.1445056E17,1.6100583E16,1.09716426E17,5.9002017E15,3.713327E16,1.8228234E16,3.5590813E16,1.5567968E14,8.478904E15,1.3018746E16,3.4971135E15,1.02507844E15,7.977034E15,1.7982324E16,0E0,0E0,0E0,0E0,0E0,0E0,0E0,0E0,0E0,0E0,0E0,0E0,0E0,0E0,0E0],"parents":[2147483647,0,0,1,1,2,2,3,3,4,4,5,5,6,6,7,7,8,8,9,9,10,10,11,11,12,12,13,13],"right_children":[2,4,6,8,10,12,14,16,18,20,22,24,26,28,-1,-1,-1,-1,-1,-1,-1,-1,-1,-1,-1,-1,-1,-1,-1],"split_conditions":[3.1150684E0,2.01E2,9.8E1,3.0136986E-2,3E1,3E1,7.5E-1,1.8E1,5.1E1,2.7E1,3.4E1,4E0,2.1E1,1.0526316E-1,6.5359295E6,1.292206E5,-5.981735E4,-3.389026E4,8.2644445E4,1.5251098E6,5.430487E5,1.384718E5,-3.5233293E4,-4.966755E3,1.009494E5,9.1733044E5,3.3605072E5,7.9016044E5,1.4683992E6],"split_indices":[2,5,5,2,0,5,3,0,5,0,0,5,0,4,0,0,0,0,0,0,0,0,0,0,0,0,0,0,0],"split_type":[0,0,0,0,0,0,0,0,0,0,0,0,0,0,0,0,0,0,0,0,0,0,0,0,0,0,0,0,0],"sum_hessian":[2.5176E4,2.3369E4,1.807E3,2.1915E4,1.454E3,1.372E3,4.35E2,1.3202E4,8.713E3,2.11E2,1.243E3,9.33E2,4.39E2,4.33E2,2E0,1E1,1.3192E4,6.677E3,2.036E3,4.2E1,1.69E2,4.58E2,7.85E2,5.36E2,3.97E2,7E1,3.69E2,2.78E2,1.55E2],"tree_param":{"num_deleted":"0","num_feature":"12","num_nodes":"29","size_leaf_vector":"1"}},{"base_weights":[-1.0289219E4,-5.3712325E5,6.861003E6,-7.4286625E5,2.5683168E6,3.246049E6,2.100316E7,-9.9402294E5,2.592891E5,2.590075E7,1.380344E6,9.54908E5,8.61855E6,1.819924E7,3.9467836E7,-5.6608957E4,-2.823299E4,-1.7231875E4,1.5019016E5,7.631572E5,1.8682622E6,3.7675872E5,8.584389E3,9.608668E3,1.3395786E5,1.014617E6,3.414206E5,1.6601502E6,7.666061E5,1.758604E6,4.537413E6],"categories":[],"categories_nodes":[],"categories_segments":[],"categories_sizes":[],"default_left":[0,0,0,0,0,0,0,0,0,0,0,0,0,0,0,0,0,0,0,0,0,0,0,0,0,0,0,0,0,0,0],"id":2,"left_children":[1,3,5,7,9,11,13,15,17,19,21,23,25,27,29,-1,-1,-1,-1,-1,-1,-1,-1,-1,-1,-1,-1,-1,-1,-1,-1],"loss_changes":[9.068908E16,1.4868354E16,9.113568E16,5.4930656E15,4.004491E16,1.7495391E16,1.807549E16,1.0344794E15,7.250874E15,7.96652E15,1.0242309E16,1.3119995E15,8.7429557E15,1.312749E16,7.1617463E15,0E0,0E0,0E0,0E0,0E0,0E0,0E0,0E0,0E0,0E0,0E0,0E0,0E0,0E0,0E0,0E0],"parents":[2147483647,0,0,1,1,2,2,3,3,4,4,5,5,6,6,7,7,8,8,9,9,10,10,11,11,12,12,13,13,14,14],"right_children":[2,4,6,8,10,12,14,16,18,20,22,24,26,28,30,-1,-1,-1,-1,-1,-1,-1,-1,-1,-1,-1,-1,-1,-1,-1,-1],"split_conditions":[3.1150684E0,2.01E2,1.11E2,1.1123288E0,2.8E1,3.5E1,2.4912281E-1,3.0136986E-2,7.4E1,2.42E2,3.1E1,1.1E1,2.1E1,2.4E1,3.59E2,-5.6608957E4,-2.823299E4,-1.7231875E4,1.5019016E5,7.631572E5,1.8682622E6,3.7675872E5,8.584389E3,9.608668E3,1.3395786E5,1.014617E6,3.414206E5,1.6601502E6,7.666061E5,1.758604E6,4.537413E6],"split_indices":[2,5,5,2,0,5,3,2,5,5,0,5,0,0,5,0,0,0,0,0,0,0,0,0,0,0,0,0,0,0,0],"split_type":[0,0,0,0,0,0,0,0,0,0,0,0,0,0,0,0,0,0,0,0,0,0,0,0,0,0,0,0,0,0,0],"sum_hessian":[2.505E4,2.3267E4,1.783E3,2.1822E4,1.445E3,1.421E3,3.62E2,1.7449E4,4.373E3,6.9E1,1.376E3,9.97E2,4.24E2,3.16E2,4.6E1,1.32E4,4.249E3,3.585E3,7.88E2,3.7E1,3.2E1,2.25E2,1.151E3,6.92E2,3.05E2,5.5E1,3.69E2,4.9E1,2.67E2,4.4E1,2E0],"tree_param":{"num_deleted":"0","num_feature":"12","num_nodes":"31","size_leaf_vector":"1"}},{"base_weights":[-1.6489367E4,-5.2603125E5,6.7696515E6,-8.9275056E5,8.780129E5,1.0087795E6,1.1807793E7,-1.0663126E6,-3.8700628E5,-3.333746E5,2.7544012E6,3.312667E5,2.7712412E6,1.1320564E7,8.527906E7,-5.694006E4,-4.658541E4,-4.304096E4,2.1218953E4,-1.9210365E4,5.4137184E4,6.956342E4,2.2603283E5,3.0736547E4,9.683352E3,8.787949E4,3.3079578E5,4.213871E5,8.0192744E5,4.6812485E6,1.0887378E6],"categories":[],"categories_nodes":[],"categories_segments":[],"categories_sizes":[],"default_left":[0,0,0,0,0,0,0,0,0,0,0,0,0,0,0,0,0,0,0,0,0,0,0,0,0,0,0,0,0,0,0],"id":3,"left_children":[1,3,5,7,9,11,13,15,17,19,21,23,25,27,29,-1,-1,-1,-1,-1,-1,-1,-1,-1,-1,-1,-1,-1,-1,-1,-1],"loss_changes":[8.669118E16,1.2008022E16,5.0809257E16,1.6226902E15,1.0979668E16,9.7584804E14,3.2469283E16,1.332578E14,1.8172517E15,2.117643E14,4.5561915E15,2.2971658E13,8.7302726E14,1.2544088E16,1.1413489E15,0E0,0E0,0E0,0E0,0E0,0E0,0E0,0E0,0E0,0E0,0E0,0E0,0E0,0E0,0E0,0E0],"parents":[2147483647,0,0,1,1,2,2,3,3,4,4,5,5,6,6,7,7,8,8,9,9,10,10,11,11,12,12,13,13,14,14],"right_children":[2,4,6,8,10,12,14,16,18,20,22,24,26,28,30,-1,-1,-1,-1,-1,-1,-1,-1,-1,-1,-1,-1,-1,-1,-1,-1],"split_conditions":[3.1150684E0,1.1123288E0,6.4102565E-3,3.0136986E-2,1.6528925E-2,4.1150684E0,7.1178083E0,1.8867925E-2,9.1743115E-3,6.4102565E-3,2.1150684E0,1.8E2,1E0,4.1150684E0,9.117808E0,-5.694006E4,-4.658541E4,-4.304096E4,2.1218953E4,-1.9210365E4,5.4137184E4,6.956342E4,2.2603283E5,3.0736547E4,9.683352E3,8.787949E4,3.3079578E5,4.213871E5,8.0192744E5,4.6812485E6,1.0887378E6],"split_indices":[2,2,3,2,3,2,2,3,3,3,2,1,7,2,2,0,0,0,0,0,0,0,0,0,0,0,0,0,0,0,0],"split_type":[0,0,0,0,0,0,0,0,0,0,0,0,0,0,0,0,0,0,0,0,0,0,0,0,0,0,0,0,0,0,0],"sum_hessian":[2.5069E4,2.3319E4,1.75E3,1.849E4,4.829E3,8.17E2,9.33E2,1.3765E4,4.725E3,2.935E3,1.894E3,5.91E2,2.26E2,9.28E2,5E0,8.942E3,4.823E3,2.983E3,1.742E3,2.834E3,1.01E2,1.07E3,8.24E2,1.92E2,3.99E2,1.8E2,4.6E1,5.77E2,3.51E2,4E0,1E0],"tree_param":{"num_deleted":"0","num_feature":"12","num_nodes":"31","size_leaf_vector":"1"}},{"base_weights":[2.062796E4,-4.71407E5,6.49416E6,-7.0306875E5,1.8817691E6,2.8857682E6,2.1209764E7,-8.430225E5,5.488292E5,1.6479723E5,8.587672E6,5.453433E5,7.6656825E6,2.026969E7,6.1280875E6,-5.1395824E4,-2.3959002E4,-3.7660363E4,9.4439195E4,-7.5363003E3,1.4139405E5,3.7046312E5,1.2515609E6,-9.42946E3,7.403413E4,2.561488E5,6.018567E5,7.459762E5,1.4522216E6],"categories":[],"categories_nodes":[],"categories_segments":[],"categories_sizes":[],"default_left":[0,0,0,0,0,0,0,0,0,0,0,0,0,0,0,0,0,0,0,0,0,0,0,0,0,0,0,0,0],"id":4,"left_children":[1,3,5,7,9,11,13,15,17,19,21,23,25,27,-1,-1,-1,-1,-1,-1,-1,-1,-1,-1,-1,-1,-1,-1,-1],"loss_changes":[7.972234E16,1.2681844E16,9.381899E16,3.7108389E15,2.4004954E16,1.5892587E16,3.0672612E16,1.2809106E15,3.7175696E15,1.3961061E15,8.0498553E15,6.558638E14,5.1291874E15,1.5810101E16,0E0,0E0,0E0,0E0,0E0,0E0,0E0,0E0,0E0,0E0,0E0,0E0,0E0,0E0,0E0],"parents":[2147483647,0,0,1,1,2,2,3,3,4,4,5,5,6,6,7,7,8,8,9,9,10,10,11,11,12,12,13,13],"right_children":[2,4,6,8,10,12,14,16,18,20,22,24,26,28,-1,-1,-1,-1,-1,-1,-1,-1,-1,-1,-1,-1,-1,-1,-1],"split_conditions":[3.1150684E0,2.0849316E0,1.17E2,1.47E2,1.04E2,3.2E1,7.5E-1,3.0136986E-2,3.287671E-2,6.5E1,1.9085173E-1,4E0,4.1150684E0,1.0714286E-1,6.1280875E6,-5.1395824E4,-2.3959002E4,-3.7660363E4,9.4439195E4,-7.5363003E3,1.4139405E5,3.7046312E5,1.2515609E6,-9.42946E3,7.403413E4,2.561488E5,6.018567E5,7.459762E5,1.4522216E6],"split_indices":[2,2,5,5,5,5,3,2,2,5,4,5,2,4,0,0,0,0,0,0,0,0,0,0,0,0,0,0,0],"split_type":[0,0,0,0,0,0,0,0,0,0,0,0,0,0,0,0,0,0,0,0,0,0,0,0,0,0,0,0,0],"sum_hessian":[2.5027E4,2.326E4,1.767E3,2.1176E4,2.084E3,1.42E3,3.47E2,1.9047E4,2.129E3,1.66E3,4.24E2,9.54E2,4.66E2,3.45E2,2E0,1.2628E4,6.419E3,1.08E3,1.049E3,1.485E3,1.75E2,3.97E2,2.7E1,5.35E2,4.19E2,2.96E2,1.7E2,2.16E2,1.29E2],"tree_param":{"num_deleted":"0","num_feature":"12","num_nodes":"29","size_leaf_vector":"1"}},{"base_weights":[2.6914506E4,-2.4909484E5,1.1307432E7,-6.680712E5,2.409675E6,5.394561E6,2.7571066E7,-7.210707E5,2.6183085E6,6.510603E5,9.711394E6,1.7284626E6,1.1250151E7,2.5518638E7,4.3046295E6,-4.810795E4,-1.3277055E4,3.972312E4,3.137596E5,-5.7762065E3,1.5594736E5,4.1337347E5,1.3809149E6,3.603501E4,1.9373527E5,5.2259025E5,1.4173554E6,1.0448136E6,1.8589912E6],"categories":[],"categories_nodes":[],"categories_segments":[],"categories_sizes":[],"default_left":[0,0,0,0,0,0,0,0,0,0,0,0,0,0,0,0,0,0,0,0,0,0,0,0,0,0,0,0,0],"id":5,"left_children":[1,3,5,7,9,11,13,15,17,19,21,23,25,27,-1,-1,-1,-1,-1,-1,-1,-1,-1,-1,-1,-1,-1,-1,-1],"loss_changes":[7.834853E16,2.736385E16,5.7646287E16,3.6979132E15,4.2933683E16,9.469044E15,1.7020827E16,2.293286E15,2.2426679E15,5.1007713E15,1.6552353E16,5.876799E14,2.0241E15,7.631839E15,0E0,0E0,0E0,0E0,0E0,0E0,0E0,0E0,0E0,0E0,0E0,0E0,0E0,0E0,0E0],"parents":[2147483647,0,0,1,1,2,2,3,3,4,4,5,5,6,6,7,7,8,8,9,9,10,10,11,11,12,12,13,13],"right_children":[2,4,6,8,10,12,14,16,18,20,22,24,26,28,-1,-1,-1,-1,-1,-1,-1,-1,-1,-1,-1,-1,-1,-1,-1],"split_conditions":[4.1150684E0,2.0849316E0,1.09E2,3.26E2,1.04E2,3.2E1,7.1178083E0,3.0136986E-2,1.0328767E0,3.5E1,1.9085173E-1,1.1E1,3.0994153E-1,1.3169643E-1,4.3046295E6,-4.810795E4,-1.3277055E4,3.972312E4,3.137596E5,-5.7762065E3,1.5594736E5,4.1337347E5,1.3809149E6,3.603501E4,1.9373527E5,5.2259025E5,1.4173554E6,1.0448136E6,1.8589912E6],"split_indices":[2,2,5,5,5,5,2,2,2,5,4,5,3,4,0,0,0,0,0,0,0,0,0,0,0,0,0,0,0],"split_type":[0,0,0,0,0,0,0,0,0,0,0,0,0,0,0,0,0,0,0,0,0,0,0,0,0,0,0,0,0],"sum_hessian":[2.5162E4,2.4562E4,6E2,2.1219E4,3.343E3,4.41E2,1.59E2,2.0883E4,3.36E2,2.695E3,6.48E2,2.72E2,1.69E2,1.55E2,4E0,1.3655E4,7.228E3,2.25E2,1.11E2,2.057E3,6.38E2,6.01E2,4.7E1,1.86E2,8.6E1,1.63E2,6E0,1.13E2,4.2E1],"tree_param":{"num_deleted":"0","num_feature":"12","num_nodes":"29","size_leaf_vector":"1"}},{"base_weights":[-3.6705277E4,-4.5910022E5,5.5631905E6,-5.964241E5,2.7019598E6,2.9260705E6,1.7144464E7,-9.222332E5,-8.518236E4,3.2546432E7,1.6765582E6,7.535985E5,7.4819005E6,2.1446284E7,7.1509675E6,-4.9054562E4,-4.0559445E4,-2.833087E4,6.577071E4,5.319372E5,1.9127519E6,4.0530416E5,2.1804014E4,7.607222E3,1.355483E5,6.361847E5,2.0022272E5,9.349718E5,2.0928342E6,2.0335911E5,8.0581425E5],"categories":[],"categories_nodes":[],"categories_segments":[],"categories_sizes":[],"default_left":[0,0,0,0,0,0,0,0,0,0,0,0,0,0,0,0,0,0,0,0,0,0,0,0,0,0,0,0,0,0,0],"id":6,"left_children":[1,3,5,7,9,11,13,15,17,19,21,23,25,27,29,-1,-1,-1,-1,-1,-1,-1,-1,-1,-1,-1,-1,-1,-1,-1,-1],"loss_changes":[5.894988E16,1.0061193E16,5.333586E16,3.6993793E15,2.9476912E16,1.4098178E16,1.3775472E16,8.786215E13,5.830711E15,3.595008E15,7.445754E15,1.1368271E15,8.3339545E15,1.1887825E16,2.6715164E15,0E0,0E0,0E0,0E0,0E0,0E0,0E0,0E0,0E0,0E0,0E0,0E0,0E0,0E0,0E0,0E0],"parents":[2147483647,0,0,1,1,2,2,3,3,4,4,5,5,6,6,7,7,8,8,9,9,10,10,11,11,12,12,13,13,14,14],"right_children":[2,4,6,8,10,12,14,16,18,20,22,24,26,28,30,-1,-1,-1,-1,-1,-1,-1,-1,-1,-1,-1,-1,-1,-1,-1,-1],"split_conditions":[3.1150684E0,2.42E2,1.17E2,8.219178E-2,2.8E1,3.5E1,2.8E1,2.6E1,5.1E1,1.15068495E-1,3.1E1,1.7E1,2.3E1,2.42E2,3.02E2,-4.9054562E4,-4.0559445E4,-2.833087E4,6.577071E4,5.319372E5,1.9127519E6,4.0530416E5,2.1804014E4,7.607222E3,1.355483E5,6.361847E5,2.0022272E5,9.349718E5,2.0928342E6,2.0335911E5,8.0581425E5],"split_indices":[2,5,5,2,0,5,0,5,5,2,0,5,0,5,5,0,0,0,0,0,0,0,0,0,0,0,0,0,0,0,0],"split_type":[0,0,0,0,0,0,0,0,0,0,0,0,0,0,0,0,0,0,0,0,0,0,0,0,0,0,0,0,0,0,0],"sum_hessian":[2.492E4,2.3173E4,1.747E3,2.2209E4,9.64E2,1.424E3,3.23E2,1.3564E4,8.645E3,3.1E1,9.33E2,9.65E2,4.59E2,2.25E2,9.8E1,8.86E3,4.704E3,6.434E3,2.211E3,7E0,2.4E1,1.5E2,7.83E2,7.39E2,2.26E2,1.82E2,2.77E2,2E2,2.5E1,7.4E1,2.4E1],"tree_param":{"num_deleted":"0","num_feature":"12","num_nodes":"31","size_leaf_vector":"1"}},{"base_weights":[-4.446349E3,-2.468243E5,1.0219732E7,-6.219225E5,2.1881738E6,5.7850945E6,2.493662E7,-7.41766E5,4.1243228E5,9.4234E5,1.106162E7,1.6189355E6,1.1259631E7,1.863978E7,4.0940776E7,-4.4468023E4,-2.243548E4,3.0485512E5,-8.708742E3,3.0294822E3,2.0193925E5,1.0396547E6,2.745097E5,1.6102112E4,1.5040527E5,1.0020816E6,4.6615416E5,1.084664E6,4.4279125E5,1.4503072E6,3.3256492E6],"categories":[],"categories_nodes":[],"categories_segments":[],"categories_sizes":[],"default_left":[0,0,0,0,0,0,0,0,0,0,0,0,0,0,0,0,0,0,0,0,0,0,0,0,0,0,0,0,0,0,0],"id":7,"left_children":[1,3,5,7,9,11,13,15,17,19,21,23,25,27,29,-1,-1,-1,-1,-1,-1,-1,-1,-1,-1,-1,-1,-1,-1,-1,-1],"loss_changes":[6.206692E16,2.234771E16,3.77089E16,2.628397E15,3.6094678E16,1.0176852E16,1.2740806E16,8.214168E14,7.344001E15,7.8220395E15,2.1681558E16,4.5844045E14,3.095456E15,2.7356708E15,9.362921E15,0E0,0E0,0E0,0E0,0E0,0E0,0E0,0E0,0E0,0E0,0E0,0E0,0E0,0E0,0E0,0E0],"parents":[2147483647,0,0,1,1,2,2,3,3,4,4,5,5,6,6,7,7,8,8,9,9,10,10,11,11,12,12,13,13,14,14],"right_children":[2,4,6,8,10,12,14,16,18,20,22,24,26,28,30,-1,-1,-1,-1,-1,-1,-1,-1,-1,-1,-1,-1,-1,-1,-1,-1],"split_conditions":[4.1150684E0,2.0849316E0,1.3E2,1.45E2,1.52E2,3.1E1,1.3169643E-1,3.0136986E-2,2.9E1,5.3E1,2.8E1,4E0,2.1E1,2.8E1,1.83E2,-4.4468023E4,-2.243548E4,3.0485512E5,-8.708742E3,3.0294822E3,2.0193925E5,1.0396547E6,2.745097E5,1.6102112E4,1.5040527E5,1.0020816E6,4.6615416E5,1.084664E6,4.4279125E5,1.4503072E6,3.3256492E6],"split_indices":[2,2,5,5,5,5,4,2,0,5,0,5,0,0,1,0,0,0,0,0,0,0,0,0,0,0,0,0,0,0,0],"split_type":[0,0,0,0,0,0,0,0,0,0,0,0,0,0,0,0,0,0,0,0,0,0,0,0,0,0,0,0,0,0,0],"sum_hessian":[2.5044E4,2.4465E4,5.79E2,2.12E4,3.265E3,4.46E2,1.33E2,1.8999E4,2.201E3,2.864E3,4.01E2,2.54E2,1.92E2,9.7E1,3.6E1,1.2634E4,6.365E3,2.05E2,1.996E3,2.23E3,6.34E2,1.45E2,2.56E2,1.32E2,1.22E2,3.3E1,1.59E2,7.3E1,2.4E1,2.6E1,1E1],"tree_param":{"num_deleted":"0","num_feature":"12","num_nodes":"31","size_leaf_vector":"1"}},{"base_weights":[-4.3738423E3,-2.2453572E5,9.143959E6,-5.751863E5,2.0684486E6,4.327982E6,2.1999646E7,-6.9802975E5,5.0925803E5,5.320432E5,8.472965E6,1.2482491E6,9.655619E6,1.9910314E7,7.230744E7,-2.2849588E4,-4.3873156E4,6.0756494E5,5.3589663E3,-2.6631238E3,1.4146377E5,5.531722E5,7.5016164E4,5.0278344E4,5.1632606E5,1.1049921E6,4.23667E5,5.9083256E5,1.188285E6,8.57966E5,3.99526E6],"categories":[],"categories_nodes":[],"categories_segments":[],"categories_sizes":[],"default_left":[0,0,0,0,0,0,0,0,0,0,0,0,0,0,0,0,0,0,0,0,0,0,0,0,0,0,0,0,0,0,0],"id":8,"left_children":[1,3,5,7,9,11,13,15,17,19,21,23,25,27,29,-1,-1,-1,-1,-1,-1,-1,-1,-1,-1,-1,-1,-1,-1,-1,-1],"loss_changes":[5.0395188E16,1.964621E16,3.630945E16,2.8236216E15,3.188672E16,7.02685E15,1.5377881E16,8.229533E14,1.009565E16,3.516235E15,1.1308576E16,5.910719E14,2.1226104E15,4.555822E15,1.142893E15,0E0,0E0,0E0,0E0,0E0,0E0,0E0,0E0,0E0,0E0,0E0,0E0,0E0,0E0,0E0,0E0],"parents":[2147483647,0,0,1,1,2,2,3,3,4,4,5,5,6,6,7,7,8,8,9,9,10,10,11,11,12,12,13,13,14,14],"right_children":[2,4,6,8,10,12,14,16,18,20,22,24,26,28,30,-1,-1,-1,-1,-1,-1,-1,-1,-1,-1,-1,-1,-1,-1,-1,-1],"split_conditions":[4.1150684E0,2.0849316E0,1.06E2,1.45E2,1.04E2,3.1E1,7.1178083E0,2.9E1,2.7E1,4.2E1,3E1,3.438486E-1,2E1,5.263158E-2,2.4E1,-2.2849588E4,-4.3873156E4,6.0756494E5,5.3589663E3,-2.6631238E3,1.4146377E5,5.531722E5,7.5016164E4,5.0278344E4,5.1632606E5,1.1049921E6,4.23667E5,5.9083256E5,1.188285E6,8.57966E5,3.99526E6],"split_indices":[2,2,5,5,5,5,2,0,0,5,0,3,0,3,0,0,0,0,0,0,0,0,0,0,0,0,0,0,0,0,0],"split_type":[0,0,0,0,0,0,0,0,0,0,0,0,0,0,0,0,0,0,0,0,0,0,0,0,0,0,0,0,0,0,0],"sum_hessian":[2.5019E4,2.4432E4,5.87E2,2.1192E4,3.24E3,4.28E2,1.59E2,1.9036E4,2.156E3,2.614E3,6.26E2,2.72E2,1.56E2,1.54E2,5E0,8.125E3,1.0911E4,7.1E1,2.085E3,2.084E3,5.3E2,4.56E2,1.7E2,2.66E2,6E0,1.2E1,1.44E2,5.1E1,1.03E2,1E0,4E0],"tree_param":{"num_deleted":"0","num_feature":"12","num_nodes":"31","size_leaf_vector":"1"}},{"base_weights":[1.3174107E4,-3.819566E5,5.097927E6,-6.657185E5,6.855044E5,5.198777E5,9.207986E6,-7.9160806E5,-2.9369016E5,3.407124E5,5.446581E6,4.524591E4,1.699492E6,8.541975E6,4.7552504E7,1.5928228E5,-3.9722812E4,-3.5985992E4,2.2469428E4,-1.7315115E4,7.4424836E4,6.242412E4,4.9910956E5,1.6223496E3,1.9599467E5,4.876417E4,2.639542E5,3.8307872E5,1.0201981E6,7.50582E5,2.8574245E6],"categories":[],"categories_nodes":[],"categories_segments":[],"categories_sizes":[],"default_left":[0,0,0,0,0,0,0,0,0,0,0,0,0,0,0,0,0,0,0,0,0,0,0,0,0,0,0,0,0,0,0],"id":9,"left_children":[1,3,5,7,9,11,13,15,17,19,21,23,25,27,29,-1,-1,-1,-1,-1,-1,-1,-1,-1,-1,-1,-1,-1,-1,-1,-1],"loss_changes":[5.023853E16,7.028452E15,3.3920556E16,8.58244E14,7.997569E15,4.7806268E14,2.385478E16,1.5766986E14,1.4679585E15,3.5844509E15,6.2520057E15,3.0123504E13,6.299822E14,9.608164E15,4.1382955E15,0E0,0E0,0E0,0E0,0E0,0E0,0E0,0E0,0E0,0E0,0E0,0E0,0E0,0E0,0E0,0E0],"parents":[2147483647,0,0,1,1,2,2,3,3,4,4,5,5,6,6,7,7,8,8,9,9,10,10,11,11,12,12,13,13,14,14],"right_children":[2,4,6,8,10,12,14,16,18,20,22,24,26,28,30,-1,-1,-1,-1,-1,-1,-1,-1,-1,-1,-1,-1,-1,-1,-1,-1],"split_conditions":[3.1150684E0,1.0712329E0,4.464286E-3,3.0136986E-2,1.4423077E-1,4.1150684E0,5.1178083E0,1.8E1,1.0752688E-2,4.464286E-3,1.4814815E-1,5.0769234E-1,1.92E2,2.8735632E-1,4.347826E-2,1.5928228E5,-3.9722812E4,-3.5985992E4,2.2469428E4,-1.7315115E4,7.4424836E4,6.242412E4,4.9910956E5,1.6223496E3,1.9599467E5,4.876417E4,2.639542E5,3.8307872E5,1.0201981E6,7.50582E5,2.8574245E6],"split_indices":[2,2,4,2,4,2,2,0,4,4,3,3,1,3,3,0,0,0,0,0,0,0,0,0,0,0,0,0,0,0,0],"split_type":[0,0,0,0,0,0,0,0,0,0,0,0,0,0,0,0,0,0,0,0,0,0,0,0,0,0,0,0,0,0,0],"sum_hessian":[2.5003E4,2.3201E4,1.802E3,1.8329E4,4.872E3,8.53E2,9.49E2,1.3694E4,4.635E3,4.544E3,3.28E2,6.09E2,2.44E2,9.34E2,1.5E1,9E0,1.3685E4,2.946E3,1.689E3,2.843E3,1.701E3,1.71E2,1.57E2,6.08E2,1E0,2.04E2,4E1,8.71E2,6.3E1,4E0,1.1E1],"tree_param":{"num_deleted":"0","num_feature":"12","num_nodes":"31","size_leaf_vector":"1"}},{"base_weights":[-2.1364324E3,-2.1110798E5,8.666448E6,-5.28946E5,1.8554918E6,4.9547985E6,2.5856564E7,-5.716992E5,2.6644208E6,3.753852E5,7.7776205E6,1.542796E6,9.960482E6,1.7191452E7,3.8751944E7,-3.778476E4,-1.1344077E4,1.1537041E6,8.703067E4,-1.3596533E4,8.809624E4,3.1706478E5,1.2428984E6,1.0453539E4,1.7368978E5,3.9798472E5,9.80098E5,1.1230011E6,4.037041E5,1.53197E6,2.9045835E6],"categories":[],"categories_nodes":[],"categories_segments":[],"categories_sizes":[],"default_left":[0,0,0,0,0,0,0,0,0,0,0,0,0,0,0,0,0,0,0,0,0,0,0,0,0,0,0,0,0,0,0],"id":10,"left_children":[1,3,5,7,9,11,13,15,17,19,21,23,25,27,29,-1,-1,-1,-1,-1,-1,-1,-1,-1,-1,-1,-1,-1,-1,-1,-1],"loss_changes":[4.5173083E16,1.5995133E16,3.7324653E16,2.8829163E15,2.844951E16,8.251066E15,1.0954756E16,1.3211996E15,5.2202686E15,2.3322596E15,1.5764239E16,7.435709E14,3.6249223E15,2.892929E15,4.6527724E15,0E0,0E0,0E0,0E0,0E0,0E0,0E0,0E0,0E0,0E0,0E0,0E0,0E0,0E0,0E0,0E0],"parents":[2147483647,0,0,1,1,2,2,3,3,4,4,5,5,6,6,7,7,8,8,9,9,10,10,11,11,12,12,13,13,14,14],"right_children":[2,4,6,8,10,12,14,16,18,20,22,24,26,28,30,-1,-1,-1,-1,-1,-1,-1,-1,-1,-1,-1,-1,-1,-1,-1,-1],"split_conditions":[4.1150684E0,2.0849316E0,1.55E2,3.42E2,1.04E2,4.1E1,1.1486486E-1,3.0136986E-2,3E1,2.3E1,1.9085173E-1,1E1,4.7041097E0,2.8E1,4.1178083E0,-3.778476E4,-1.1344077E4,1.1537041E6,8.703067E4,-1.3596533E4,8.809624E4,3.1706478E5,1.2428984E6,1.0453539E4,1.7368978E5,3.9798472E5,9.80098E5,1.1230011E6,4.037041E5,1.53197E6,2.9045835E6],"split_indices":[2,2,5,5,5,5,4,2,0,5,4,5,2,0,2,0,0,0,0,0,0,0,0,0,0,0,0,0,0,0,0],"split_type":[0,0,0,0,0,0,0,0,0,0,0,0,0,0,0,0,0,0,0,0,0,0,0,0,0,0,0,0,0,0,0],"sum_hessian":[2.4935E4,2.4349E4,5.86E2,2.1104E4,3.245E3,4.83E2,1.03E2,2.0826E4,2.78E2,2.597E3,6.48E2,2.88E2,1.95E2,6.3E1,4E1,1.3579E4,7.247E3,1.1E1,2.67E2,1.771E3,8.26E2,5.99E2,4.9E1,1.71E2,1.17E2,1.63E2,3.2E1,3.9E1,2.4E1,3E1,1E1],"tree_param":{"num_deleted":"0","num_feature":"12","num_nodes":"31","size_leaf_vector":"1"}},{"base_weights":[-5.3930503E3,-5.736095E5,9.590162E5,-4.4110038E5,-8.232072E5,3.8503712E6,-2.5168338E5,-4.9167188E5,2.0828769E6,-7.490409E5,-8.752122E5,3.7358558E6,6.530798E7,1.0424127E6,-6.150007E5,-2.6879713E4,2.2719841E2,7.251289E4,2.9698822E5,-3.8300035E4,-1.787536E4,-4.5027234E4,-4.1297418E4,1.5279917E5,4.6750175E5,-3.665774E4,4.1000778E6,3.584581E4,3.3657025E5,-3.1866406E4,1.791504E5],"categories":[],"categories_nodes":[],"categories_segments":[],"categories_sizes":[],"default_left":[0,0,0,0,0,0,0,0,0,0,0,0,0,0,0,0,0,0,0,0,0,0,0,0,0,0,0,0,0,0,0],"id":11,"left_children":[1,3,5,7,9,11,13,15,17,19,21,23,25,27,29,-1,-1,-1,-1,-1,-1,-1,-1,-1,-1,-1,-1,-1,-1,-1,-1],"loss_changes":[1.36264E16,5.171452E14,3.2272655E16,1.3059014E15,2.0268756E13,1.890599E16,3.0562595E15,2.2840072E14,4.818138E14,1.4620471E13,3.2287417E12,1.0342011E16,5.5724345E15,2.6339142E15,4.779673E14,0E0,0E0,0E0,0E0,0E0,0E0,0E0,0E0,0E0,0E0,0E0,0E0,0E0,0E0,0E0,0E0],"parents":[2147483647,0,0,1,1,2,2,3,3,4,4,5,5,6,6,7,7,8,8,9,9,10,10,11,11,12,12,13,13,14,14],"right_children":[2,4,6,8,10,12,14,16,18,20,22,24,26,28,30,-1,-1,-1,-1,-1,-1,-1,-1,-1,-1,-1,-1,-1,-1,-1,-1],"split_conditions":[1.724138E-2,3.1E1,2.8E1,4.464286E-3,3.4E1,7.5E-1,3.1E1,7.936508E-3,1E0,4.464286E-3,4E1,2.1E-1,2.1E1,2.7118644E-1,5.0769234E-1,-2.6879713E4,2.2719841E2,7.251289E4,2.9698822E5,-3.8300035E4,-1.787536E4,-4.5027234E4,-4.1297418E4,1.5279917E5,4.6750175E5,-3.665774E4,4.1000778E6,3.584581E4,3.3657025E5,-3.1866406E4,1.791504E5],"split_indices":[4,0,0,4,0,3,0,3,7,4,0,3,0,3,3,0,0,0,0,0,0,0,0,0,0,0,0,0,0,0,0],"split_type":[0,0,0,0,0,0,0,0,0,0,0,0,0,0,0,0,0,0,0,0,0,0,0,0,0,0,0,0,0,0,0],"sum_hessian":[2.4864E4,1.5646E4,9.218E3,1.0222E4,5.424E3,2.72E3,6.498E3,1.0022E4,2E2,2.242E3,3.182E3,2.716E3,4E0,1.424E3,5.074E3,9.173E3,8.49E2,1.73E2,2.7E1,2.148E3,9.4E1,2.09E3,1.092E3,2.424E3,2.92E2,1E0,3E0,1.348E3,7.6E1,5.048E3,2.6E1],"tree_param":{"num_deleted":"0","num_feature":"12","num_nodes":"31","size_leaf_vector":"1"}},{"base_weights":[1.6972773E4,-1.850862E5,8.396912E6,-4.809929E5,1.706627E6,5.123709E6,2.5613772E7,-5.196616E5,2.4468212E6,7.446986E5,9.686379E6,1.03409975E6,9.790572E6,2.273099E7,6.4106084E7,-3.3502543E4,-4.2461675E3,5.0786535E4,2.603425E5,1.2317354E3,1.8033648E5,4.318991E5,2.7105952E6,3.2838652E4,2.702485E5,4.1286803E5,9.092221E5,8.440855E5,1.5247669E6,3.5709065E6,6.886466E5],"categories":[],"categories_nodes":[],"categories_segments":[],"categories_sizes":[],"default_left":[0,0,0,0,0,0,0,0,0,0,0,0,0,0,0,0,0,0,0,0,0,0,0,0,0,0,0,0,0,0,0],"id":12,"left_children":[1,3,5,7,9,11,13,15,17,19,21,23,25,27,29,-1,-1,-1,-1,-1,-1,-1,-1,-1,-1,-1,-1,-1,-1,-1,-1],"loss_changes":[4.2430807E16,1.3697847E16,3.3117784E16,2.396895E15,2.540018E16,9.475442E15,8.973518E15,1.3654039E15,1.0848701E15,6.089709E15,1.6149953E16,4.3514964E14,2.835591E15,3.5271946E15,1.2245918E15,0E0,0E0,0E0,0E0,0E0,0E0,0E0,0E0,0E0,0E0,0E0,0E0,0E0,0E0,0E0,0E0],"parents":[2147483647,0,0,1,1,2,2,3,3,4,4,5,5,6,6,7,7,8,8,9,9,10,10,11,11,12,12,13,13,14,14],"right_children":[2,4,6,8,10,12,14,16,18,20,22,24,26,28,30,-1,-1,-1,-1,-1,-1,-1,-1,-1,-1,-1,-1,-1,-1,-1,-1],"split_conditions":[4.1150684E0,2.0849316E0,1.55E2,3.42E2,1.65E2,3.2E1,7.1178083E0,5.1E1,1.0328767E0,6.5E1,2.5757575E-1,4.7041097E0,4.7041097E0,1.1486486E-1,9.117808E0,-3.3502543E4,-4.2461675E3,5.0786535E4,2.603425E5,1.2317354E3,1.8033648E5,4.318991E5,2.7105952E6,3.2838652E4,2.702485E5,4.1286803E5,9.092221E5,8.440855E5,1.5247669E6,3.5709065E6,6.886466E5],"split_indices":[2,2,5,5,5,5,2,5,2,5,4,2,2,4,2,0,0,0,0,0,0,0,0,0,0,0,0,0,0,0,0],"split_type":[0,0,0,0,0,0,0,0,0,0,0,0,0,0,0,0,0,0,0,0,0,0,0,0,0,0,0,0,0,0,0],"sum_hessian":[2.5057E4,2.4468E4,5.89E2,2.1159E4,3.309E3,4.96E2,9.3E1,2.0884E4,2.75E2,2.954E3,3.55E2,2.65E2,2.31E2,8.8E1,5E0,1.5516E4,5.368E3,1.82E2,9.3E1,2.361E3,5.93E2,3.48E2,7E0,2.45E2,2E1,1.97E2,3.4E1,5.2E1,3.6E1,4E0,1E0],"tree_param":{"num_deleted":"0","num_feature":"12","num_nodes":"31","size_leaf_vector":"1"}},{"base_weights":[-2.4783093E3,-3.3723312E5,4.3476495E6,-4.4351612E5,2.1467752E6,2.0756631E6,1.4836557E7,-5.877153E5,1.2461648E5,2.774527E7,1.2846949E6,5.0889744E5,5.286152E6,1.93601E7,5.4758425E6,-1.8792918E4,-3.5572387E4,-1.0789916E4,1.042885E5,5.502802E5,1.6084554E6,3.6820928E5,8.034021E3,1.7869662E4,3.5759753E5,4.654913E5,1.3180625E5,8.1271494E5,1.7132529E6,1.8383653E5,1.2128924E6],"categories":[],"categories_nodes":[],"categories_segments":[],"categories_sizes":[],"default_left":[0,0,0,0,0,0,0,0,0,0,0,0,0,0,0,0,0,0,0,0,0,0,0,0,0,0,0,0,0,0,0],"id":13,"left_children":[1,3,5,7,9,11,13,15,17,19,21,23,25,27,29,-1,-1,-1,-1,-1,-1,-1,-1,-1,-1,-1,-1,-1,-1,-1,-1],"loss_changes":[3.641877E16,6.1317433E15,4.2554588E16,1.8245271E15,2.099512E16,7.3915335E15,1.3359247E16,4.653377E14,3.010684E15,1.9416173E15,6.306077E15,9.928234E14,5.1149506E15,9.3495E15,3.458859E15,0E0,0E0,0E0,0E0,0E0,0E0,0E0,0E0,0E0,0E0,0E0,0E0,0E0,0E0,0E0,0E0],"parents":[2147483647,0,0,1,1,2,2,3,3,4,4,5,5,6,6,7,7,8,8,9,9,10,10,11,11,12,12,13,13,14,14],"right_children":[2,4,6,8,10,12,14,16,18,20,22,24,26,28,30,-1,-1,-1,-1,-1,-1,-1,-1,-1,-1,-1,-1,-1,-1,-1,-1],"split_conditions":[3.1150684E0,2.42E2,1.28E2,1.1123288E0,2.8E1,3.7E1,2.8E1,2.9E1,1.02E2,1.15068495E-1,3.1E1,4.7041097E0,2.3E1,2.42E2,3.59E2,-1.8792918E4,-3.5572387E4,-1.0789916E4,1.042885E5,5.502802E5,1.6084554E6,3.6820928E5,8.034021E3,1.7869662E4,3.5759753E5,4.654913E5,1.3180625E5,8.1271494E5,1.7132529E6,1.8383653E5,1.2128924E6],"split_indices":[2,5,5,2,0,5,0,0,5,2,0,2,0,5,5,0,0,0,0,0,0,0,0,0,0,0,0,0,0,0,0],"split_type":[0,0,0,0,0,0,0,0,0,0,0,0,0,0,0,0,0,0,0,0,0,0,0,0,0,0,0,0,0,0,0],"sum_hessian":[2.5007E4,2.3221E4,1.786E3,2.2269E4,9.52E2,1.469E3,3.17E2,1.7761E4,4.508E3,3E1,9.22E2,9.88E2,4.81E2,2.13E2,1.04E2,6.55E3,1.1211E4,3.842E3,6.66E2,7E0,2.3E1,1.43E2,7.79E2,9.67E2,2.1E1,1.9E2,2.91E2,1.78E2,3.5E1,9.6E1,8E0],"tree_param":{"num_deleted":"0","num_feature":"12","num_nodes":"31","size_leaf_vector":"1"}},{"base_weights":[8.348803E3,-1.6963722E5,7.5511845E6,-4.4116794E5,1.583668E6,1.6784456E6,1.1399835E7,-6.278465E5,-8.0621484E4,-6.3189742E4,3.649913E6,9.0544475E5,5.019044E6,9.658366E6,2.094354E7,1.344992E5,-3.1520748E4,-2.1969012E4,4.057377E4,-1.5629294E4,7.1253477E3,1.7509105E5,1.3543621E6,1.918377E4,1.06423914E5,1.5626136E5,5.122109E5,4.4667506E5,1.3064728E6,8.252748E5,2.040335E6],"categories":[],"categories_nodes":[],"categories_segments":[],"categories_sizes":[],"default_left":[0,0,0,0,0,0,0,0,0,0,0,0,0,0,0,0,0,0,0,0,0,0,0,0,0,0,0,0,0,0,0],"id":14,"left_children":[1,3,5,7,9,11,13,15,17,19,21,23,25,27,29,-1,-1,-1,-1,-1,-1,-1,-1,-1,-1,-1,-1,-1,-1,-1,-1],"loss_changes":[3.3660926E16,1.1662185E16,1.3044892E16,1.427583E15,1.1178468E16,5.893812E14,5.5981205E15,1.20785755E14,2.3165405E15,9.387217E13,4.962231E15,1.19153936E14,3.934921E14,3.3125515E15,3.998606E15,0E0,0E0,0E0,0E0,0E0,0E0,0E0,0E0,0E0,0E0,0E0,0E0,0E0,0E0,0E0,0E0],"parents":[2147483647,0,0,1,1,2,2,3,3,4,4,5,5,6,6,7,7,8,8,9,9,10,10,11,11,12,12,13,13,14,14],"right_children":[2,4,6,8,10,12,14,16,18,20,22,24,26,28,30,-1,-1,-1,-1,-1,-1,-1,-1,-1,-1,-1,-1,-1,-1,-1,-1],"split_conditions":[4.1150684E0,2.0849316E0,6.4102565E-3,8.219178E-2,6.4102565E-3,1.92E2,2.3529412E-1,1.8E1,4.054054E-2,2.3E1,5.0769234E-1,2.3E1,2.5E1,5.1178083E0,4.7041097E0,1.344992E5,-3.1520748E4,-2.1969012E4,4.057377E4,-1.5629294E4,7.1253477E3,1.7509105E5,1.3543621E6,1.918377E4,1.06423914E5,1.5626136E5,5.122109E5,4.4667506E5,1.3064728E6,8.252748E5,2.040335E6],"split_indices":[2,2,3,2,3,1,3,0,3,0,3,0,0,2,2,0,0,0,0,0,0,0,0,0,0,0,0,0,0,0,0],"split_type":[0,0,0,0,0,0,0,0,0,0,0,0,0,0,0,0,0,0,0,0,0,0,0,0,0,0,0,0,0,0,0],"sum_hessian":[2.5071E4,2.4494E4,5.77E2,2.121E4,3.284E3,2.29E2,3.48E2,1.3974E4,7.236E3,1.828E3,1.456E3,1.87E2,4.2E1,2.96E2,5.2E1,1E1,1.3964E4,5.161E3,2.075E3,8.26E2,1.002E3,1.448E3,8E0,1.32E2,5.5E1,3.2E1,1E1,2.85E2,1.1E1,4.4E1,8E0],"tree_param":{"num_deleted":"0","num_feature":"12","num_nodes":"31","size_leaf_vector":"1"}},{"base_weights":[1.9237715E4,-2.9373275E5,4.097327E6,-5.1058356E5,5.2900894E5,3.386586E6,2.0690064E7,-6.3739056E5,-2.8634094E5,-1.18330445E5,1.9919188E6,5.1449844E5,6.0822485E6,1.739891E7,6.1969964E7,-2.9437068E4,-3.6112184E4,9.63125E4,-2.2394318E4,-1.2507136E4,3.1354998E4,1.3345767E5,2.1092459E4,6.2541655E3,7.6102664E4,2.6481128E5,9.527873E5,1.7664029E6,7.060369E5,5.1219365E6,4.22274E4],"categories":[],"categories_nodes":[],"categories_segments":[],"categories_sizes":[],"default_left":[0,0,0,0,0,0,0,0,0,0,0,0,0,0,0,0,0,0,0,0,0,0,0,0,0,0,0,0,0,0,0],"id":15,"left_children":[1,3,5,7,9,11,13,15,17,19,21,23,25,27,29,-1,-1,-1,-1,-1,-1,-1,-1,-1,-1,-1,-1,-1,-1,-1,-1],"loss_changes":[3.1910518E16,4.1430014E15,2.0945301E16,5.2237754E14,4.5874997E15,1.3235996E16,8.839457E15,4.8029546E13,2.3742246E15,3.3020165E14,1.5789454E15,3.2507366E14,8.893241E15,3.5566066E15,1.2281835E16,0E0,0E0,0E0,0E0,0E0,0E0,0E0,0E0,0E0,0E0,0E0,0E0,0E0,0E0,0E0,0E0],"parents":[2147483647,0,0,1,1,2,2,3,3,4,4,5,5,6,6,7,7,8,8,9,9,10,10,11,11,12,12,13,13,14,14],"right_children":[2,4,6,8,10,12,14,16,18,20,22,24,26,28,30,-1,-1,-1,-1,-1,-1,-1,-1,-1,-1,-1,-1,-1,-1,-1,-1],"split_conditions":[3.1150684E0,1.1123288E0,2.9535866E-1,1.3888889E-2,4.347826E-2,6.4102565E-3,7.5E-1,3.2E1,2.5E1,1.2658228E-2,3E1,4.1150684E0,5.1150684E0,3.0994153E-1,1E0,-2.9437068E4,-3.6112184E4,9.63125E4,-2.2394318E4,-1.2507136E4,3.1354998E4,1.3345767E5,2.1092459E4,6.2541655E3,7.6102664E4,2.6481128E5,9.527873E5,1.7664029E6,7.060369E5,5.1219365E6,4.22274E4],"split_indices":[2,2,3,3,3,3,3,0,0,3,0,2,2,3,8,0,0,0,0,0,0,0,0,0,0,0,0,0,0,0,0],"split_type":[0,0,0,0,0,0,0,0,0,0,0,0,0,0,0,0,0,0,0,0,0,0,0,0,0,0,0,0,0,0,0],"sum_hessian":[2.5E4,2.3219E4,1.781E3,1.8376E4,4.843E3,1.709E3,7.2E1,1.1737E4,6.639E3,3.358E3,1.485E3,8.28E2,8.81E2,6.8E1,4E0,7.465E3,4.272E3,4.51E2,6.188E3,2.854E3,5.04E2,1.037E3,4.48E2,5.98E2,2.3E2,8.32E2,4.9E1,9E0,5.9E1,2E0,2E0],"tree_param":{"num_deleted":"0","num_feature":"12","num_nodes":"31","size_leaf_vector":"1"}},{"base_weights":[-1.3191078E3,-1.6439636E5,6.802567E6,-3.9733225E5,1.3374978E6,6.3012605E6,5.421195E7,-5.716816E5,-6.2925566E4,5.665796E5,5.2437655E6,1.215669E6,9.558926E6,3.825925E4,3.2374138E6,-3.1237535E4,-2.4068594E4,-2.116776E4,3.5124543E4,-9.418469E3,9.878496E4,2.4807455E5,3.941796E6,2.7326428E4,2.1271362E5,4.25138E5,1.2950904E6],"categories":[],"categories_nodes":[],"categories_segments":[],"categories_sizes":[],"default_left":[0,0,0,0,0,0,0,0,0,0,0,0,0,0,0,0,0,0,0,0,0,0,0,0,0,0,0],"id":16,"left_children":[1,3,5,7,9,11,13,15,17,19,21,23,25,-1,-1,-1,-1,-1,-1,-1,-1,-1,-1,-1,-1,-1,-1],"loss_changes":[2.7777821E16,8.5538923E15,1.3585634E16,1.2340762E15,9.883495E15,9.613898E15,3.3292482E15,6.6379793E13,2.0017976E15,2.9184123E15,1.084714E16,4.6125647E14,5.890086E15,0E0,0E0,0E0,0E0,0E0,0E0,0E0,0E0,0E0,0E0,0E0,0E0,0E0,0E0],"parents":[2147483647,0,0,1,1,2,2,3,3,4,4,5,5,6,6,7,7,8,8,9,9,10,10,11,11,12,12],"right_children":[2,4,6,8,10,12,14,16,18,20,22,24,26,-1,-1,-1,-1,-1,-1,-1,-1,-1,-1,-1,-1,-1,-1],"split_conditions":[4.1150684E0,2.0849316E0,7.1178083E0,8.219178E-2,1.027668E-1,4.464286E-3,1.4925373E-2,1.3333334E-2,2.8368793E-2,6.060606E-3,7.5E-1,1.92E2,2.9535866E-1,3.825925E4,3.2374138E6,-3.1237535E4,-2.4068594E4,-2.116776E4,3.5124543E4,-9.418469E3,9.878496E4,2.4807455E5,3.941796E6,2.7326428E4,2.1271362E5,4.25138E5,1.2950904E6],"split_indices":[2,2,2,2,4,4,3,3,4,4,3,1,3,0,0,0,0,0,0,0,0,0,0,0,0,0,0],"split_type":[0,0,0,0,0,0,0,0,0,0,0,0,0,0,0,0,0,0,0,0,0,0,0,0,0,0,0],"sum_hessian":[2.5033E4,2.4448E4,5.85E2,2.1166E4,3.282E3,5.8E2,5E0,1.3912E4,7.254E3,2.742E3,5.4E2,2.27E2,3.53E2,1E0,4E0,8.759E3,5.153E3,4.932E3,2.322E3,1.786E3,9.56E2,5.39E2,1E0,1.87E2,4E1,3.33E2,2E1],"tree_param":{"num_deleted":"0","num_feature":"12","num_nodes":"27","size_leaf_vector":"1"}},{"base_weights":[1.0552626E4,-2.696641E5,3.6272792E6,-3.6997547E5,2.060024E6,1.9137526E6,1.435162E7,-5.1377822E5,1.0972015E5,1.8831374E7,8.9590806E5,1.9979589E5,4.887084E6,2.0948684E7,4.1076278E6,2.5340045E4,-2.6273615E4,1.7159331E5,-2.2124152E4,1.4905299E6,6.64341E5,1.4593917E5,-2.7094438E4,4.871529E3,2.0592686E5,4.2124266E5,6.722821E4,9.103473E5,2.0021634E6,5.7380965E4,7.140474E5],"categories":[],"categories_nodes":[],"categories_segments":[],"categories_sizes":[],"default_left":[0,0,0,0,0,0,0,0,0,0,0,0,0,0,0,0,0,0,0,0,0,0,0,0,0,0,0,0,0,0,0],"id":17,"left_children":[1,3,5,7,9,11,13,15,17,19,21,23,25,27,29,-1,-1,-1,-1,-1,-1,-1,-1,-1,-1,-1,-1,-1,-1,-1,-1],"loss_changes":[2.5284958E16,5.411951E15,3.2939876E16,1.5314468E15,1.8647874E16,7.887882E15,1.6606276E16,2.0411295E14,9.395993E15,3.3781571E15,2.6046743E15,3.9392242E14,7.082135E15,7.1237874E15,2.934696E15,0E0,0E0,0E0,0E0,0E0,0E0,0E0,0E0,0E0,0E0,0E0,0E0,0E0,0E0,0E0,0E0],"parents":[2147483647,0,0,1,1,2,2,3,3,4,4,5,5,6,6,7,7,8,8,9,9,10,10,11,11,12,12,13,13,14,14],"right_children":[2,4,6,8,10,12,14,16,18,20,22,24,26,28,30,-1,-1,-1,-1,-1,-1,-1,-1,-1,-1,-1,-1,-1,-1,-1,-1],"split_conditions":[3.1150684E0,2.42E2,1.52E2,5.4E1,2.9E1,3.5E1,2.8E1,1.9E1,2.7E1,2.7E1,3.4E1,4.7041097E0,2.4E1,4.7041097E0,3.02E2,2.5340045E4,-2.6273615E4,1.7159331E5,-2.2124152E4,1.4905299E6,6.64341E5,1.4593917E5,-2.7094438E4,4.871529E3,2.0592686E5,4.2124266E5,6.722821E4,9.103473E5,2.0021634E6,5.7380965E4,7.140474E5],"split_indices":[2,5,5,5,0,5,0,0,0,0,0,2,0,2,5,0,0,0,0,0,0,0,0,0,0,0,0,0,0,0,0],"split_type":[0,0,0,0,0,0,0,0,0,0,0,0,0,0,0,0,0,0,0,0,0,0,0,0,0,0,0,0,0,0,0],"sum_hessian":[2.4947E4,2.3154E4,1.793E3,2.2199E4,9.55E2,1.547E3,2.46E2,1.7079E4,5.12E3,6.1E1,8.94E2,9.82E2,5.65E2,1.49E2,9.7E1,1.93E2,1.6886E4,7.29E2,4.391E3,1.9E1,4.2E1,3.71E2,5.23E2,9.58E2,2.4E1,2.82E2,2.83E2,1.32E2,1.7E1,7.6E1,2.1E1],"tree_param":{"num_deleted":"0","num_feature":"12","num_nodes":"31","size_leaf_vector":"1"}},{"base_weights":[7.724648E3,-1.3868745E5,5.9106725E6,-2.6236425E5,2.7575082E6,2.5584708E6,1.6596955E7,-3.5403438E5,1.4914436E6,2.633394E7,1.5979572E6,6.063075E5,5.691686E6,1.5010509E7,5.801531E7,-2.4708818E4,5.731371E3,3.20895E3,2.573219E5,1.0722186E6,3.6767848E6,4.779385E5,2.717006E4,1.6448117E4,2.0518408E5,8.422018E5,2.243122E5,1.4612264E6,5.693838E5,4.6364166E5,3.3941365E6],"categories":[],"categories_nodes":[],"categories_segments":[],"categories_sizes":[],"default_left":[0,0,0,0,0,0,0,0,0,0,0,0,0,0,0,0,0,0,0,0,0,0,0,0,0,0,0,0,0,0,0],"id":18,"left_children":[1,3,5,7,9,11,13,15,17,19,21,23,25,27,29,-1,-1,-1,-1,-1,-1,-1,-1,-1,-1,-1,-1,-1,-1,-1,-1],"loss_changes":[2.1711107E16,8.78109E15,2.1737663E16,3.7802724E15,2.7405345E16,2.8346274E15,8.6568115E15,1.467527E15,6.092709E15,9.270489E15,8.037335E15,2.7703425E14,2.317379E15,6.9280013E15,1.7753462E15,0E0,0E0,0E0,0E0,0E0,0E0,0E0,0E0,0E0,0E0,0E0,0E0,0E0,0E0,0E0,0E0],"parents":[2147483647,0,0,1,1,2,2,3,3,4,4,5,5,6,6,7,7,8,8,9,9,10,10,11,11,12,12,13,13,14,14],"right_children":[2,4,6,8,10,12,14,16,18,20,22,24,26,28,30,-1,-1,-1,-1,-1,-1,-1,-1,-1,-1,-1,-1,-1,-1,-1,-1],"split_conditions":[4.1150684E0,2.42E2,1.19E2,3.1150684E0,2.8E1,3.2E1,7.1178083E0,5.4E1,5.9E1,3.81E2,3E1,4.7041097E0,2E1,2.4E1,2.4E1,-2.4708818E4,5.731371E3,3.20895E3,2.573219E5,1.0722186E6,3.6767848E6,4.779385E5,2.717006E4,1.6448117E4,2.0518408E5,8.422018E5,2.243122E5,1.4612264E6,5.693838E5,4.6364166E5,3.3941365E6],"split_indices":[2,5,5,2,0,5,2,5,5,5,0,2,0,0,0,0,0,0,0,0,0,0,0,0,0,0,0,0,0,0,0],"split_type":[0,0,0,0,0,0,0,0,0,0,0,0,0,0,0,0,0,0,0,0,0,0,0,0,0,0,0,0,0,0,0],"sum_hessian":[2.5119E4,2.4512E4,6.07E2,2.3509E4,1.003E3,4.63E2,1.44E2,2.2342E4,1.167E3,4.6E1,9.57E2,2.86E2,1.77E2,1.4E2,4E0,1.7199E4,5.143E3,8.4E2,3.27E2,4.3E1,3E0,1.11E2,8.46E2,2.66E2,2E1,1.6E1,1.61E2,2.7E1,1.13E2,1E0,3E0],"tree_param":{"num_deleted":"0","num_feature":"12","num_nodes":"31","size_leaf_vector":"1"}},{"base_weights":[1.9755773E3,-1.3093019E5,5.5904195E6,-3.4341153E5,1.2563612E6,3.318312E6,1.8281678E7,-3.7854828E5,2.2909352E6,1.7136008E5,5.689632E6,4.5241425E5,6.55285E6,2.1895372E7,8.299352E6,-8.154061E3,-2.8011342E4,1.6077421E6,9.7961445E4,-5.4342295E3,1.1837343E5,4.6841466E5,1.03653984E5,9.573101E3,1.8967567E5,2.5687012E5,7.0582344E5,7.28588E5,1.511587E6,1.7015278E5,7.110817E5],"categories":[],"categories_nodes":[],"categories_segments":[],"categories_sizes":[],"default_left":[0,0,0,0,0,0,0,0,0,0,0,0,0,0,0,0,0,0,0,0,0,0,0,0,0,0,0,0,0,0,0],"id":19,"left_children":[1,3,5,7,9,11,13,15,17,19,21,23,25,27,29,-1,-1,-1,-1,-1,-1,-1,-1,-1,-1,-1,-1,-1,-1,-1,-1],"loss_changes":[1.857657E16,7.201749E15,1.6692998E16,1.9618944E15,1.5607812E16,4.5763446E15,2.992714E15,8.183679E14,2.7007882E15,1.6041991E15,8.468574E15,2.2857479E14,2.4112473E15,3.4668181E15,6.7653426E14,0E0,0E0,0E0,0E0,0E0,0E0,0E0,0E0,0E0,0E0,0E0,0E0,0E0,0E0,0E0,0E0],"parents":[2147483647,0,0,1,1,2,2,3,3,4,4,5,5,6,6,7,7,8,8,9,9,10,10,11,11,12,12,13,13,14,14],"right_children":[2,4,6,8,10,12,14,16,18,20,22,24,26,28,30,-1,-1,-1,-1,-1,-1,-1,-1,-1,-1,-1,-1,-1,-1,-1,-1],"split_conditions":[4.1150684E0,2.0849316E0,1.55E2,3.42E2,1.04E2,3E1,2.8E1,3E1,2.7E1,6.4E1,2.8E1,4.7041097E0,4.7041097E0,2.25E2,8.108108E-2,-8.154061E3,-2.8011342E4,1.6077421E6,9.7961445E4,-5.4342295E3,1.1837343E5,4.6841466E5,1.03653984E5,9.573101E3,1.8967567E5,2.5687012E5,7.0582344E5,7.28588E5,1.511587E6,1.7015278E5,7.110817E5],"split_indices":[2,2,5,5,5,5,0,0,0,5,0,2,2,5,4,0,0,0,0,0,0,0,0,0,0,0,0,0,0,0,0],"split_type":[0,0,0,0,0,0,0,0,0,0,0,0,0,0,0,0,0,0,0,0,0,0,0,0,0,0,0,0,0,0,0],"sum_hessian":[2.5009E4,2.4429E4,5.8E2,2.1185E4,3.244E3,4.93E2,8.7E1,2.0907E4,2.78E2,2.607E3,6.37E2,2.62E2,2.31E2,6.3E1,2.4E1,9.565E3,1.1342E4,2E0,2.76E2,2.313E3,2.94E2,3.15E2,3.22E2,2.44E2,1.8E1,1.96E2,3.5E1,3.5E1,2.8E1,1.4E1,1E1],"tree_param":{"num_deleted":"0","num_feature":"12","num_nodes":"31","size_leaf_vector":"1"}},{"base_weights":[5.6035903E3,-1.2704677E5,5.7631385E6,-2.381549E5,2.4914512E6,2.5300488E6,1.4312298E7,-3.772229E5,6.7031725E5,2.0992264E7,9.570795E5,4.767215E5,5.272917E6,1.0309547E7,2.5462402E7,-9.3578E3,-2.7110104E4,-5.13738E3,1.4824802E5,8.811997E5,2.8675708E6,4.1290312E5,1.8164273E4,1.0340112E4,1.6840067E5,1.0447638E6,2.0488328E5,6.323201E5,1.29847375E5,8.818846E5,2.3586382E6],"categories":[],"categories_nodes":[],"categories_segments":[],"categories_sizes":[],"default_left":[0,0,0,0,0,0,0,0,0,0,0,0,0,0,0,0,0,0,0,0,0,0,0,0,0,0,0,0,0,0,0],"id":20,"left_children":[1,3,5,7,9,11,13,15,17,19,21,23,25,27,29,-1,-1,-1,-1,-1,-1,-1,-1,-1,-1,-1,-1,-1,-1,-1,-1],"loss_changes":[1.9059076E16,7.0974055E15,1.5497584E16,2.9567215E15,2.8168324E16,2.3009767E15,6.610685E15,6.3629055E14,5.511837E15,8.2967644E15,3.976787E15,1.8270113E14,3.1274132E15,2.0398281E15,5.9630703E15,0E0,0E0,0E0,0E0,0E0,0E0,0E0,0E0,0E0,0E0,0E0,0E0,0E0,0E0,0E0,0E0],"parents":[2147483647,0,0,1,1,2,2,3,3,4,4,5,5,6,6,7,7,8,8,9,9,10,10,11,11,12,12,13,13,14,14],"right_children":[2,4,6,8,10,12,14,16,18,20,22,24,26,28,30,-1,-1,-1,-1,-1,-1,-1,-1,-1,-1,-1,-1,-1,-1,-1,-1],"split_conditions":[4.1150684E0,2.42E2,1.11E2,2.0849316E0,2.9E1,3E1,1.3169643E-1,3E1,6.5E1,3.81E2,3E1,4.7041097E0,2E1,2.8E1,1E0,-9.3578E3,-2.7110104E4,-5.13738E3,1.4824802E5,8.811997E5,2.8675708E6,4.1290312E5,1.8164273E4,1.0340112E4,1.6840067E5,1.0447638E6,2.0488328E5,6.323201E5,1.29847375E5,8.818846E5,2.3586382E6],"split_indices":[2,5,5,2,0,5,4,0,5,5,0,2,0,0,8,0,0,0,0,0,0,0,0,0,0,0,0,0,0,0,0],"split_type":[0,0,0,0,0,0,0,0,0,0,0,0,0,0,0,0,0,0,0,0,0,0,0,0,0,0,0,0,0,0,0],"sum_hessian":[2.4953E4,2.4392E4,5.61E2,2.34E4,9.92E2,4.08E2,1.53E2,2.0294E4,3.106E3,7.5E1,9.17E2,2.34E2,1.74E2,1.14E2,3.9E1,9.431E3,1.0863E4,2.324E3,7.82E2,7E1,5E0,6.8E1,8.49E2,2.15E2,1.9E1,1.1E1,1.63E2,8.7E1,2.7E1,3E1,9E0],"tree_param":{"num_deleted":"0","num_feature":"12","num_nodes":"31","size_leaf_vector":"1"}},{"base_weights":[3.478312E3,-2.182479E5,2.9183802E6,-3.3172628E5,1.4797939E6,1.1589606E6,9.706363E6,-4.2438088E5,1.7851202E5,1.6677461E7,6.89237E5,8.634846E4,3.6262695E6,9.033645E6,2.8100398E6,2.5562777E4,-2.1712398E4,3.04201E5,-8.819894E3,4.674263E5,1.2296834E6,2.3253583E5,-4.5332554E3,-7.107543E3,4.70712E4,3.7321616E5,4.989428E4,1.1224219E6,3.3223072E5],"categories":[],"categories_nodes":[],"categories_segments":[],"categories_sizes":[],"default_left":[0,0,0,0,0,0,0,0,0,0,0,0,0,0,0,0,0,0,0,0,0,0,0,0,0,0,0,0,0],"id":21,"left_children":[1,3,5,7,9,11,13,15,17,19,21,23,25,27,-1,-1,-1,-1,-1,-1,-1,-1,-1,-1,-1,-1,-1,-1,-1],"loss_changes":[1.6173903E16,4.4817135E15,2.1115758E16,1.0306907E15,1.7493807E16,3.7206172E15,1.0877365E16,1.7055261E14,7.0245124E15,3.947337E15,4.2825605E15,1.918057E14,4.2899878E15,1.1388245E16,0E0,0E0,0E0,0E0,0E0,0E0,0E0,0E0,0E0,0E0,0E0,0E0,0E0,0E0,0E0],"parents":[2147483647,0,0,1,1,2,2,3,3,4,4,5,5,6,6,7,7,8,8,9,9,10,10,11,11,12,12,13,13],"right_children":[2,4,6,8,10,12,14,16,18,20,22,24,26,28,-1,-1,-1,-1,-1,-1,-1,-1,-1,-1,-1,-1,-1,-1,-1],"split_conditions":[3.1150684E0,2.01E2,1.13E2,7.6E1,2.8E1,3.7E1,7.1178083E0,1.9E1,2.5E1,2.0575342E0,3.1E1,1.7E1,2.3E1,2.4E1,2.8100398E6,2.5562777E4,-2.1712398E4,3.04201E5,-8.819894E3,4.674263E5,1.2296834E6,2.3253583E5,-4.5332554E3,-7.107543E3,4.70712E4,3.7321616E5,4.989428E4,1.1224219E6,3.3223072E5],"split_indices":[2,5,5,5,0,5,2,0,0,2,0,5,0,0,0,0,0,0,0,0,0,0,0,0,0,0,0,0,0],"split_type":[0,0,0,0,0,0,0,0,0,0,0,0,0,0,0,0,0,0,0,0,0,0,0,0,0,0,0,0,0],"sum_hessian":[2.5023E4,2.3255E4,1.768E3,2.1799E4,1.456E3,1.405E3,3.63E2,1.8449E4,3.35E3,7.1E1,1.385E3,9.8E2,4.25E2,3.59E2,4E0,1.92E2,1.8257E4,1.89E2,3.161E3,3.8E1,3.3E1,2.27E2,1.158E3,7.74E2,2.06E2,1.72E2,2.53E2,5.3E1,3.06E2],"tree_param":{"num_deleted":"0","num_feature":"12","num_nodes":"29","size_leaf_vector":"1"}},{"base_weights":[1.1582228E3,-4.3228973E4,1.5407198E7,-3.0822747E5,1.4377838E6,9.324424E6,3.994123E7,-3.2843825E5,2.1936582E6,5.5475256E5,8.097056E6,5.6925435E6,1.9598436E7,2.5344382E7,3.057334E6,-2.279315E4,-4.129701E3,3.7607497E5,3.7832562E4,-6.2342783E3,1.00832625E5,7.782592E5,1.6133066E5,1.6161728E5,5.749887E5,5.926313E5,1.4620858E6,-5.488326E4,1.4202175E6],"categories":[],"categories_nodes":[],"categories_segments":[],"categories_sizes":[],"default_left":[0,0,0,0,0,0,0,0,0,0,0,0,0,0,0,0,0,0,0,0,0,0,0,0,0,0,0,0,0],"id":22,"left_children":[1,3,5,7,9,11,13,15,17,19,21,23,25,27,-1,-1,-1,-1,-1,-1,-1,-1,-1,-1,-1,-1,-1,-1,-1],"loss_changes":[1.7138151E16,9.808172E15,1.0372491E16,1.07259815E15,2.2299657E16,2.0899601E15,2.7837315E15,6.587304E14,1.2958536E15,3.3277076E15,1.6099429E16,6.05741E14,7.738334E14,8.402964E14,0E0,0E0,0E0,0E0,0E0,0E0,0E0,0E0,0E0,0E0,0E0,0E0,0E0,0E0,0E0],"parents":[2147483647,0,0,1,1,2,2,3,3,4,4,5,5,6,6,7,7,8,8,9,9,10,10,11,11,12,12,13,13],"right_children":[2,4,6,8,10,12,14,16,18,20,22,24,26,28,-1,-1,-1,-1,-1,-1,-1,-1,-1,-1,-1,-1,-1,-1,-1],"split_conditions":[5.1150684E0,2.0849316E0,2.1E-1,3.81E2,1.62E2,1.47E2,1.5625E-1,3E1,3.3E1,3.7E1,2.8E1,1E0,1.25E-1,1.9E1,3.057334E6,-2.279315E4,-4.129701E3,3.7607497E5,3.7832562E4,-6.2342783E3,1.00832625E5,7.782592E5,1.6133066E5,1.6161728E5,5.749887E5,5.926313E5,1.4620858E6,-5.488326E4,1.4202175E6],"split_indices":[2,2,3,5,5,5,4,5,0,5,0,10,4,0,0,0,0,0,0,0,0,0,0,0,0,0,0,0,0],"split_type":[0,0,0,0,0,0,0,0,0,0,0,0,0,0,0,0,0,0,0,0,0,0,0,0,0,0,0,0,0],"sum_hessian":[2.506E4,2.4989E4,7.1E1,2.1197E4,3.792E3,5.8E1,1.3E1,2.1028E4,1.69E2,3.349E3,4.43E2,4.4E1,1.4E1,9E0,4E0,1.3849E4,7.179E3,3.5E1,1.34E2,2.287E3,1.062E3,1.74E2,2.69E2,3.2E1,1.2E1,9E0,5E0,1E0,8E0],"tree_param":{"num_deleted":"0","num_feature":"12","num_nodes":"29","size_leaf_vector":"1"}},{"base_weights":[2.7522594E4,-1.9488866E5,2.8682612E6,-2.80261E5,1.7617612E6,1.1703968E6,1.0884054E7,-7.258426E4,-4.9388906E5,1.5798278E7,7.880664E5,2.6633816E5,4.170171E6,1.0107363E7,4.4533725E6,-1.7174377E4,7.840548E4,-1.7593451E4,-2.670631E4,4.109291E5,1.1219931E6,1.7675627E5,-2.824704E3,8.619815E3,2.4432505E5,4.6432222E5,9.145771E4,8.746933E5,2.74788E5],"categories":[],"categories_nodes":[],"categories_segments":[],"categories_sizes":[],"default_left":[0,0,0,0,0,0,0,0,0,0,0,0,0,0,0,0,0,0,0,0,0,0,0,0,0,0,0,0,0],"id":23,"left_children":[1,3,5,7,9,11,13,15,17,19,21,23,25,27,-1,-1,-1,-1,-1,-1,-1,-1,-1,-1,-1,-1,-1,-1,-1],"loss_changes":[1.5836932E16,3.8835934E15,2.4756969E16,9.882073E14,1.3272149E16,4.0749828E15,1.8410094E16,5.021264E15,6.2557004E13,2.9870714E15,2.1114518E15,5.008926E14,4.1511074E15,1.066796E16,0E0,0E0,0E0,0E0,0E0,0E0,0E0,0E0,0E0,0E0,0E0,0E0,0E0,0E0,0E0],"parents":[2147483647,0,0,1,1,2,2,3,3,4,4,5,5,6,6,7,7,8,8,9,9,10,10,11,11,12,12,13,13],"right_children":[2,4,6,8,10,12,14,16,18,20,22,24,26,28,-1,-1,-1,-1,-1,-1,-1,-1,-1,-1,-1,-1,-1,-1,-1],"split_conditions":[3.1150684E0,2.42E2,1.28E2,3E1,2.9E1,5.5E1,7.5E-1,5.1E1,3.2E1,1.1150684E0,3.2E1,3.0120483E-1,2.3E1,2.6E1,4.4533725E6,-1.7174377E4,7.840548E4,-1.7593451E4,-2.670631E4,4.109291E5,1.1219931E6,1.7675627E5,-2.824704E3,8.619815E3,2.4432505E5,4.6432222E5,9.145771E4,8.746933E5,2.74788E5],"split_indices":[2,5,5,0,0,5,3,5,0,2,0,3,0,0,0,0,0,0,0,0,0,0,0,0,0,0,0,0,0],"split_type":[0,0,0,0,0,0,0,0,0,0,0,0,0,0,0,0,0,0,0,0,0,0,0,0,0,0,0,0,0],"sum_hessian":[2.5064E4,2.3245E4,1.819E3,2.2274E4,9.71E2,1.502E3,3.17E2,1.1295E4,1.0979E4,6.2E1,9.09E2,1.155E3,3.47E2,3.15E2,2E0,9.695E3,1.6E3,2.426E3,8.553E3,3E1,3.2E1,2.13E2,6.96E2,1.133E3,2.2E1,1.08E2,2.39E2,1.2E2,1.95E2],"tree_param":{"num_deleted":"0","num_feature":"12","num_nodes":"29","size_leaf_vector":"1"}},{"base_weights":[2.195288E4,-1.9697146E4,1.4697706E7,-1.9040175E5,1.9698806E6,1.0075295E7,3.899492E7,-2.9135325E5,1.2066606E6,4.8723322E5,8.179377E6,3.465144E6,1.827085E7,2.0359642E7,2.864266E6,-1.8713693E4,8.252085E2,-2.874249E2,1.5873936E5,1.0189595E3,1.08446266E5,3.1850275E5,1.1315761E6,9.150211E4,4.377429E5,1.2597332E6,6.3579894E5,-5.96193E4,1.2075189E6],"categories":[],"categories_nodes":[],"categories_segments":[],"categories_sizes":[],"default_left":[0,0,0,0,0,0,0,0,0,0,0,0,0,0,0,0,0,0,0,0,0,0,0,0,0,0,0,0,0],"id":24,"left_children":[1,3,5,7,9,11,13,15,17,19,21,23,25,27,-1,-1,-1,-1,-1,-1,-1,-1,-1,-1,-1,-1,-1,-1,-1],"loss_changes":[1.5335217E16,8.4972406E15,7.5812465E15,3.2500922E15,1.8197252E16,3.2412948E15,2.583004E15,5.485971E14,3.7057472E15,1.253768E15,9.818446E15,2.86701E14,7.1806914E14,6.0068285E14,0E0,0E0,0E0,0E0,0E0,0E0,0E0,0E0,0E0,0E0,0E0,0E0,0E0,0E0,0E0],"parents":[2147483647,0,0,1,1,2,2,3,3,4,4,5,5,6,6,7,7,8,8,9,9,10,10,11,11,12,12,13,13],"right_children":[2,4,6,8,10,12,14,16,18,20,22,24,26,28,-1,-1,-1,-1,-1,-1,-1,-1,-1,-1,-1,-1,-1,-1,-1],"split_conditions":[5.1150684E0,1.79E2,2.1E-1,3.1150684E0,2.0575342E0,8.9E1,1.5625E-1,5.1E1,3.5E1,1.0684931E0,1.9085173E-1,1E0,6.410257E-2,4.464286E-3,2.864266E6,-1.8713693E4,8.252085E2,-2.874249E2,1.5873936E5,1.0189595E3,1.08446266E5,3.1850275E5,1.1315761E6,9.150211E4,4.377429E5,1.2597332E6,6.3579894E5,-5.96193E4,1.2075189E6],"split_indices":[2,5,3,2,2,5,4,5,5,2,4,10,4,4,0,0,0,0,0,0,0,0,0,0,0,0,0,0,0],"split_type":[0,0,0,0,0,0,0,0,0,0,0,0,0,0,0,0,0,0,0,0,0,0,0,0,0,0,0,0,0],"sum_hessian":[2.5087E4,2.5017E4,7E1,2.3041E4,1.976E3,6E1,1E1,2.1489E4,1.552E3,1.596E3,3.8E2,3.4E1,2.6E1,6E0,4E0,1.6929E4,4.56E3,9.61E2,5.91E2,1.25E3,3.46E2,3.39E2,4.1E1,2.7E1,7E0,1E1,1.6E1,1E0,5E0],"tree_param":{"num_deleted":"0","num_feature":"12","num_nodes":"29","size_leaf_vector":"1"}},{"base_weights":[1.6898691E4,-1.9021589E5,1.8264025E6,2.4073619E5,-3.9409288E5,1.1844203E7,3.5422272E5,-1.9272138E5,3.630642E6,-2.892731E5,-4.704148E5,1.1013228E7,3.8303788E6,4.0054702E6,-2.2774234E5,-1.6596303E4,4.2100914E4,1.1120076E6,1.5678742E5,-1.5921292E4,6.4888676E4,-2.1918076E4,-2.7610756E4,8.9461294E5,3.3785034E5,1.3980448E5,1.3721149E6,-1.5508922E4,4.0464684E5],"categories":[],"categories_nodes":[],"categories_segments":[],"categories_sizes":[],"default_left":[0,0,0,0,0,0,0,0,0,0,0,0,0,0,0,0,0,0,0,0,0,0,0,0,0,0,0,0,0],"id":25,"left_children":[1,3,5,7,9,11,13,15,17,19,21,23,-1,25,27,-1,-1,-1,-1,-1,-1,-1,-1,-1,-1,-1,-1,-1,-1],"loss_changes":[9.370837E15,1.9713489E15,3.7868675E16,1.0589055E16,1.2171239E14,1.6862003E16,4.760685E15,9.2069885E14,7.4546094E15,2.9744605E14,2.2862782E13,9.423949E15,0E0,8.6532333E15,1.3284021E15,0E0,0E0,0E0,0E0,0E0,0E0,0E0,0E0,0E0,0E0,0E0,0E0,0E0,0E0],"parents":[2147483647,0,0,1,1,2,2,3,3,4,4,5,5,6,6,7,7,8,8,9,9,10,10,11,11,13,13,14,14],"right_children":[2,4,6,8,10,12,14,16,18,20,22,24,-1,26,28,-1,-1,-1,-1,-1,-1,-1,-1,-1,-1,-1,-1,-1,-1],"split_conditions":[1.52E2,2.6E1,2.8E1,5.1E1,3.1E1,4.71831E-1,3E1,2.3E1,2E1,2.8735632E-1,5.2E1,2.6E1,3.8303788E6,3.59E2,4.71831E-1,-1.6596303E4,4.2100914E4,1.1120076E6,1.5678742E5,-1.5921292E4,6.4888676E4,-2.1918076E4,-2.7610756E4,8.9461294E5,3.3785034E5,1.3980448E5,1.3721149E6,-1.5508922E4,4.0464684E5],"split_indices":[5,0,0,5,0,3,0,5,0,3,5,0,0,5,3,0,0,0,0,0,0,0,0,0,0,0,0,0,0],"split_type":[0,0,0,0,0,0,0,0,0,0,0,0,0,0,0,0,0,0,0,0,0,0,0,0,0,0,0,0,0],"sum_hessian":[2.5002E4,2.2435E4,2.567E3,7.205E3,1.523E4,3.28E2,2.239E3,6.389E3,8.16E2,6.419E3,8.811E3,3.25E2,3E0,3.07E2,1.932E3,5.632E3,7.57E2,2E1,7.96E2,6.304E3,1.15E2,6.335E3,2.476E3,1.23E2,2.02E2,2.93E2,1.4E1,1.914E3,1.8E1],"tree_param":{"num_deleted":"0","num_feature":"12","num_nodes":"29","size_leaf_vector":"1"}},{"base_weights":[1.3567926E4,-1.7625775E5,1.6680534E6,2.2883066E5,-3.6886066E5,1.0837425E7,3.492393E5,-2.005014E5,3.474778E6,-2.1788306E5,-4.2181912E5,7.6051225E6,2.6798242E7,3.671305E6,-1.943021E5,-1.4979956E4,5.0848023E4,3.7646588E5,9.1482016E4,-1.31683E4,1.0050424E5,-1.9343105E4,-2.6225922E4,2.8665834E5,9.1127694E5,1.1542944E6,4.11065E6,1.2557849E5,1.2629684E6,-2.4431283E4,8.760056E4],"categories":[],"categories_nodes":[],"categories_segments":[],"categories_sizes":[],"default_left":[0,0,0,0,0,0,0,0,0,0,0,0,0,0,0,0,0,0,0,0,0,0,0,0,0,0,0,0,0,0,0],"id":26,"left_children":[1,3,5,7,9,11,13,15,17,19,21,23,25,27,29,-1,-1,-1,-1,-1,-1,-1,-1,-1,-1,-1,-1,-1,-1,-1,-1],"loss_changes":[7.8390127E15,1.747057E15,3.106235E16,1.0056837E16,1.2124854E14,1.6459827E16,4.0580765E15,7.693133E14,5.609267E15,4.000915E14,4.012788E13,5.2633665E15,9.21088E15,7.8480724E15,1.10759435E15,0E0,0E0,0E0,0E0,0E0,0E0,0E0,0E0,0E0,0E0,0E0,0E0,0E0,0E0,0E0,0E0],"parents":[2147483647,0,0,1,1,2,2,3,3,4,4,5,5,6,6,7,7,8,8,9,9,10,10,11,11,12,12,13,13,14,14],"right_children":[2,4,6,8,10,12,14,16,18,20,22,24,26,28,30,-1,-1,-1,-1,-1,-1,-1,-1,-1,-1,-1,-1,-1,-1,-1,-1],"split_conditions":[1.52E2,2.6E1,2.8E1,5.1E1,2.9E1,1.5384616E-1,3E1,3E1,2.3E1,2.8735632E-1,5.2E1,2.42E2,7.5E-1,3.59E2,3.59E2,-1.4979956E4,5.0848023E4,3.7646588E5,9.1482016E4,-1.31683E4,1.0050424E5,-1.9343105E4,-2.6225922E4,2.8665834E5,9.1127694E5,1.1542944E6,4.11065E6,1.2557849E5,1.2629684E6,-2.4431283E4,8.760056E4],"split_indices":[5,0,0,5,0,4,0,5,0,3,5,5,3,5,5,0,0,0,0,0,0,0,0,0,0,0,0,0,0,0,0],"split_type":[0,0,0,0,0,0,0,0,0,0,0,0,0,0,0,0,0,0,0,0,0,0,0,0,0,0,0,0,0,0,0],"sum_hessian":[2.4958E4,2.239E4,2.568E3,7.215E3,1.5175E4,3.22E2,2.246E3,6.373E3,8.42E2,3.942E3,1.1233E4,2.69E2,5.3E1,3.15E2,1.931E3,5.894E3,4.79E2,2.42E2,6E2,3.864E3,7.8E1,8.384E3,2.849E3,2.3E2,3.9E1,5.1E1,2E0,3E2,1.5E1,1.678E3,2.53E2],"tree_param":{"num_deleted":"0","num_feature":"12","num_nodes":"31","size_leaf_vector":"1"}},{"base_weights":[-5.0817056E3,-1.034095E5,3.9676948E6,-2.4928817E5,8.2581206E5,3.5491132E6,2.019529E7,-3.6117403E5,-3.524548E4,5.720053E5,8.0836575E6,1.7211376E6,6.001346E6,3.922229E6,2.5756202E7,-1.9705984E4,-1.4989335E4,-8.004461E3,4.2597586E4,3.437882E3,8.483765E4,3.5999844E5,1.2777301E6,4.6847074E4,2.5122383E5,1.0198801E6,2.7836503E5,-1.2266667E3,3.280791E5,1.7198152E6,7.95262E5],"categories":[],"categories_nodes":[],"categories_segments":[],"categories_sizes":[],"default_left":[0,0,0,0,0,0,0,0,0,0,0,0,0,0,0,0,0,0,0,0,0,0,0,0,0,0,0,0,0,0,0],"id":27,"left_children":[1,3,5,7,9,11,13,15,17,19,21,23,25,27,29,-1,-1,-1,-1,-1,-1,-1,-1,-1,-1,-1,-1,-1,-1,-1,-1],"loss_changes":[9.785021E15,3.313678E15,4.0378287E15,5.059681E14,6.105589E15,2.638901E15,1.2563746E15,2.7943326E13,8.035968E14,1.8145645E15,1.5451617E15,8.760508E14,1.4610942E15,5.2245467E13,3.8916484E14,0E0,0E0,0E0,0E0,0E0,0E0,0E0,0E0,0E0,0E0,0E0,0E0,0E0,0E0,0E0,0E0],"parents":[2147483647,0,0,1,1,2,2,3,3,4,4,5,5,6,6,7,7,8,8,9,9,10,10,11,11,12,12,13,13,14,14],"right_children":[2,4,6,8,10,12,14,16,18,20,22,24,26,28,30,-1,-1,-1,-1,-1,-1,-1,-1,-1,-1,-1,-1,-1,-1,-1,-1],"split_conditions":[4.1150684E0,2.0849316E0,5.1178083E0,8.219178E-2,2.8735632E-1,5.952381E-2,4.255319E-2,1.8867925E-2,1.1764706E-1,4.347826E-2,7.5E-1,1.91E2,6.097561E-2,1.85E2,1.79E2,-1.9705984E4,-1.4989335E4,-8.004461E3,4.2597586E4,3.437882E3,8.483765E4,3.5999844E5,1.2777301E6,4.6847074E4,2.5122383E5,1.0198801E6,2.7836503E5,-1.2266667E3,3.280791E5,1.7198152E6,7.95262E5],"split_indices":[2,2,2,2,3,3,3,3,3,3,3,1,3,1,1,0,0,0,0,0,0,0,0,0,0,0,0,0,0,0,0],"split_type":[0,0,0,0,0,0,0,0,0,0,0,0,0,0,0,0,0,0,0,0,0,0,0,0,0,0,0,0,0,0,0],"sum_hessian":[2.5047E4,2.4443E4,6.04E2,2.1127E4,3.316E3,5.9E2,1.4E1,1.3874E4,7.253E3,3.205E3,1.11E2,3.39E2,2.51E2,4E0,1E1,9.025E3,4.849E3,6.359E3,8.94E2,2.215E3,9.9E2,1.07E2,4E0,2.75E2,6.4E1,6E0,2.45E2,2E0,2E0,4E0,6E0],"tree_param":{"num_deleted":"0","num_feature":"12","num_nodes":"31","size_leaf_vector":"1"}},{"base_weights":[3.0010926E4,-1.082445E4,1.3039882E7,-1.2724826E5,2.6521708E6,8.2566855E6,3.431616E7,-2.2699356E5,1.2311172E6,1.8053244E7,7.945661E5,5.028539E6,1.78286E7,-6.4298527E4,1.8576854E6,-1.1319672E3,-1.9531055E4,8.367569E3,1.7276105E5,7.972411E5,2.6322282E6,3.1648366E5,1.5081364E4,3.0936394E5,-1.4866636E5,7.204477E4,1.1585548E6],"categories":[],"categories_nodes":[],"categories_segments":[],"categories_sizes":[],"default_left":[0,0,0,0,0,0,0,0,0,0,0,0,0,0,0,0,0,0,0,0,0,0,0,0,0,0,0],"id":28,"left_children":[1,3,5,7,9,11,13,15,17,19,21,23,25,-1,-1,-1,-1,-1,-1,-1,-1,-1,-1,-1,-1,-1,-1],"loss_changes":[1.3243464E16,7.705043E15,7.6546163E15,3.2264457E15,2.9767735E16,1.918818E15,1.462096E15,7.417458E14,3.8535142E15,7.3290997E15,2.5355672E15,4.820007E14,1.3674322E15,0E0,0E0,0E0,0E0,0E0,0E0,0E0,0E0,0E0,0E0,0E0,0E0,0E0,0E0],"parents":[2147483647,0,0,1,1,2,2,3,3,4,4,5,5,6,6,7,7,8,8,9,9,10,10,11,11,12,12],"right_children":[2,4,6,8,10,12,14,16,18,20,22,24,26,-1,-1,-1,-1,-1,-1,-1,-1,-1,-1,-1,-1,-1,-1],"split_conditions":[5.1150684E0,2.42E2,1.9148937E-1,3.1150684E0,2.9E1,1.79E2,1.9E1,2.9E1,5.7E1,3.81E2,3E1,2.6E1,4.255319E-2,-6.4298527E4,1.8576854E6,-1.1319672E3,-1.9531055E4,8.367569E3,1.7276105E5,7.972411E5,2.6322282E6,3.1648366E5,1.5081364E4,3.0936394E5,-1.4866636E5,7.204477E4,1.1585548E6],"split_indices":[2,5,3,2,0,5,0,0,5,5,0,0,3,0,0,0,0,0,0,0,0,0,0,0,0,0,0],"split_type":[0,0,0,0,0,0,0,0,0,0,0,0,0,0,0,0,0,0,0,0,0,0,0,0,0,0,0],"sum_hessian":[2.4927E4,2.485E4,7.7E1,2.381E4,1.04E3,6.4E1,1.3E1,2.2182E4,1.628E3,1.11E2,9.29E2,4.9E1,1.5E1,1E0,1.2E1,9.864E3,1.2318E4,1.102E3,5.26E2,1.06E2,5E0,7.5E1,8.54E2,4.3E1,6E0,4E0,1.1E1],"tree_param":{"num_deleted":"0","num_feature":"12","num_nodes":"27","size_leaf_vector":"1"}},{"base_weights":[9.463306E3,-1.6237697E5,1.4257328E6,2.7179906E5,-3.1587938E5,9.02102E6,1.9986667E5,-2.2624158E5,3.6788345E6,-2.3855978E5,-3.8436197E5,6.886788E6,2.1938086E7,-1.78748E5,3.0990345E6,-1.6054078E4,3.2512232E4,6.2970394E5,1.3236083E5,-1.4013955E4,7.6508647E3,-1.80712E4,-2.2341908E4,7.754992E5,1.8840572E5,8.8063144E5,2.20336E6,5.9083137E4,-2.8432756E4,1.4852564E6,8.732028E4],"categories":[],"categories_nodes":[],"categories_segments":[],"categories_sizes":[],"default_left":[0,0,0,0,0,0,0,0,0,0,0,0,0,0,0,0,0,0,0,0,0,0,0,0,0,0,0,0,0,0,0],"id":29,"left_children":[1,3,5,7,9,11,13,15,17,19,21,23,25,27,29,-1,-1,-1,-1,-1,-1,-1,-1,-1,-1,-1,-1,-1,-1,-1,-1],"loss_changes":[6.1020576E15,1.4903143E15,2.5258413E16,9.912088E15,8.738259E13,1.0242058E16,2.5658027E15,4.2390163E14,6.8185194E15,1.2684552E14,1.2390846E13,8.681762E15,4.296943E15,1.097609E15,9.664928E15,0E0,0E0,0E0,0E0,0E0,0E0,0E0,0E0,0E0,0E0,0E0,0E0,0E0,0E0,0E0,0E0],"parents":[2147483647,0,0,1,1,2,2,3,3,4,4,5,5,6,6,7,7,8,8,9,9,10,10,11,11,12,12,13,13,14,14],"right_children":[2,4,6,8,10,12,14,16,18,20,22,24,26,28,30,-1,-1,-1,-1,-1,-1,-1,-1,-1,-1,-1,-1,-1,-1,-1,-1],"split_conditions":[1.45E2,2.5E1,2.8E1,4.1E1,3.1E1,2.63E2,3.59E2,2.3E1,2.1E1,8E1,5.2E1,2.5E1,3.81E2,3.1E1,3E1,-1.6054078E4,3.2512232E4,6.2970394E5,1.3236083E5,-1.4013955E4,7.6508647E3,-1.80712E4,-2.2341908E4,7.754992E5,1.8840572E5,8.8063144E5,2.20336E6,5.9083137E4,-2.8432756E4,1.4852564E6,8.732028E4],"split_indices":[5,0,0,5,0,5,5,5,0,5,5,0,5,0,0,0,0,0,0,0,0,0,0,0,0,0,0,0,0,0,0],"split_type":[0,0,0,0,0,0,0,0,0,0,0,0,0,0,0,0,0,0,0,0,0,0,0,0,0,0,0,0,0,0,0],"sum_hessian":[2.5071E4,2.2359E4,2.712E3,5.84E3,1.6519E4,3.76E2,2.336E3,5.096E3,7.44E2,7.761E3,8.758E3,3.24E2,5.2E1,2.067E3,2.69E2,4.599E3,4.97E2,7.6E1,6.68E2,7.014E3,7.47E2,6.411E3,2.347E3,8.5E1,2.39E2,4.5E1,7E0,4.6E2,1.607E3,1.2E1,2.57E2],"tree_param":{"num_deleted":"0","num_feature":"12","num_nodes":"31","size_leaf_vector":"1"}},{"base_weights":[-1.800985E3,-2.0024912E5,1.1370469E6,2.7994662E5,-2.8908356E5,7.9929035E6,1.8355483E5,-1.9098553E5,5.2033965E6,-2.3377636E5,-3.7513272E5,6.47386E6,2.4332144E7,2.241555E6,-2.653497E5,-1.9801896E4,3.5859176E4,8.7191694E5,2.0649811E5,-1.2622222E4,2.0323377E4,-1.7989123E4,-2.1285352E4,2.5499738E5,8.302011E5,7.189231E5,1.6285768E6,7.528388E4,1.7138954E6,-1.6158765E4,3.3468347E5],"categories":[],"categories_nodes":[],"categories_segments":[],"categories_sizes":[],"default_left":[0,0,0,0,0,0,0,0,0,0,0,0,0,0,0,0,0,0,0,0,0,0,0,0,0,0,0,0,0,0,0],"id":30,"left_children":[1,3,5,7,9,11,13,15,17,19,21,23,25,27,29,-1,-1,-1,-1,-1,-1,-1,-1,-1,-1,-1,-1,-1,-1,-1,-1],"loss_changes":[5.625876E15,9.043859E14,2.4146227E16,7.6755956E15,8.505324E13,1.1036307E16,2.9975497E15,5.6304766E14,3.7235359E15,1.3029709E14,5.2795214E12,5.677355E15,2.6481372E15,1.364536E16,1.0741819E15,0E0,0E0,0E0,0E0,0E0,0E0,0E0,0E0,0E0,0E0,0E0,0E0,0E0,0E0,0E0,0E0],"parents":[2147483647,0,0,1,1,2,2,3,3,4,4,5,5,6,6,7,7,8,8,9,9,10,10,11,11,12,12,13,13,14,14],"right_children":[2,4,6,8,10,12,14,16,18,20,22,24,26,28,30,-1,-1,-1,-1,-1,-1,-1,-1,-1,-1,-1,-1,-1,-1,-1,-1],"split_conditions":[1.13E2,2.3E1,2.7E1,4.1E1,3.2E1,2.42E2,3E1,1.1E1,2E1,2.4242425E-1,5.2E1,1.5065502E-1,1.03535354E-1,3.81E2,4.71831E-1,-1.9801896E4,3.5859176E4,8.7191694E5,2.0649811E5,-1.2622222E4,2.0323377E4,-1.7989123E4,-2.1285352E4,2.5499738E5,8.302011E5,7.189231E5,1.6285768E6,7.528388E4,1.7138954E6,-1.6158765E4,3.3468347E5],"split_indices":[5,0,0,5,0,5,0,5,0,3,5,4,3,5,3,0,0,0,0,0,0,0,0,0,0,0,0,0,0,0,0],"split_type":[0,0,0,0,0,0,0,0,0,0,0,0,0,0,0,0,0,0,0,0,0,0,0,0,0,0,0,0,0,0,0],"sum_hessian":[2.4891E4,2.1198E4,3.693E3,3.309E3,1.7889E4,4.5E2,3.243E3,3.021E3,2.88E2,1.0892E4,6.997E3,4.13E2,3.7E1,5.8E2,2.663E3,2.465E3,5.56E2,2.2E1,2.66E2,1.0584E4,3.08E2,5.374E3,1.623E3,3.65E2,4.8E1,1.8E1,1.9E1,5.68E2,1.2E1,2.642E3,2.1E1],"tree_param":{"num_deleted":"0","num_feature":"12","num_nodes":"31","size_leaf_vector":"1"}},{"base_weights":[-1.9459162E4,-5.4849316E4,1.2421201E7,-1.7826766E5,1.1908226E6,7.942418E6,3.8947536E7,-2.085444E5,1.3946336E6,8.305491E6,2.2868352E5,4.4574015E6,1.9572662E7,2.6381426E7,2.5600672E6,1.0920371E4,-1.3865028E4,5.052406E3,1.8877661E5,3.597107E5,1.8128512E6,1.4522706E5,-8.216015E3,1.2266065E5,4.41834E5,1.5764304E6,4.713645E5,1.5137448E6,5.549252E5],"categories":[],"categories_nodes":[],"categories_segments":[],"categories_sizes":[],"default_left":[0,0,0,0,0,0,0,0,0,0,0,0,0,0,0,0,0,0,0,0,0,0,0,0,0,0,0,0,0],"id":31,"left_children":[1,3,5,7,9,11,13,15,17,19,21,23,25,27,-1,-1,-1,-1,-1,-1,-1,-1,-1,-1,-1,-1,-1,-1,-1],"loss_changes":[1.101993E16,3.8372242E15,8.1258677E15,1.0817467E15,1.5400029E16,2.425716E15,1.8906231E14,6.54132E14,1.3208937E15,8.0637496E15,2.0858444E15,4.083898E14,1.4009357E15,8.0518826E13,0E0,0E0,0E0,0E0,0E0,0E0,0E0,0E0,0E0,0E0,0E0,0E0,0E0,0E0,0E0],"parents":[2147483647,0,0,1,1,2,2,3,3,4,4,5,5,6,6,7,7,8,8,9,9,10,10,11,11,12,12,13,13],"right_children":[2,4,6,8,10,12,14,16,18,20,22,24,26,28,-1,-1,-1,-1,-1,-1,-1,-1,-1,-1,-1,-1,-1,-1,-1],"split_conditions":[5.1150684E0,1.65E2,2.1E-1,4.1150684E0,2.8E1,1.79E2,1.2903225E-1,2.3E1,4.9E1,2.3404256E-1,3E1,8.7E1,1.81E2,1.0964912E-1,2.5600672E6,1.0920371E4,-1.3865028E4,5.052406E3,1.8877661E5,3.597107E5,1.8128512E6,1.4522706E5,-8.216015E3,1.2266065E5,4.41834E5,1.5764304E6,4.713645E5,1.5137448E6,5.549252E5],"split_indices":[2,5,3,2,0,5,4,0,5,4,0,5,1,4,0,0,0,0,0,0,0,0,0,0,0,0,0,0,0],"split_type":[0,0,0,0,0,0,0,0,0,0,0,0,0,0,0,0,0,0,0,0,0,0,0,0,0,0,0,0,0],"sum_hessian":[2.5027E4,2.4957E4,7E1,2.2708E4,2.249E3,6.1E1,9E0,2.228E4,4.28E2,2.67E2,1.982E3,4.8E1,1.3E1,6E0,3E0,3.09E3,1.919E4,2.78E2,1.5E2,2.58E2,9E0,2.53E2,1.729E3,3.4E1,1.4E1,5E0,8E0,4E0,2E0],"tree_param":{"num_deleted":"0","num_feature":"12","num_nodes":"29","size_leaf_vector":"1"}},{"base_weights":[1.2605403E4,-1.6956553E4,1.0827748E7,-1.313607E5,1.6409169E6,6.163325E6,3.2081448E7,-2.046019E5,8.6286656E5,1.3511942E7,5.2461844E5,3.6840472E6,1.2859699E7,2.5950214E7,2.4881255E6,-1.1955928E4,1.2203413E4,-3.4169336E3,1.17888375E5,5.946572E5,2.1053792E6,1.4243711E5,-1.7086072E4,-1.3626192E5,2.398523E5,1.4664906E6,4.034848E5,1.5338452E6,1.5600367E5],"categories":[],"categories_nodes":[],"categories_segments":[],"categories_sizes":[],"default_left":[0,0,0,0,0,0,0,0,0,0,0,0,0,0,0,0,0,0,0,0,0,0,0,0,0,0,0,0,0],"id":32,"left_children":[1,3,5,7,9,11,13,15,17,19,21,23,25,27,-1,-1,-1,-1,-1,-1,-1,-1,-1,-1,-1,-1,-1,-1,-1],"loss_changes":[7.975519E15,4.718766E15,6.5435357E15,1.6948792E15,2.1274992E16,8.9894806E14,9.533754E12,3.3576108E14,2.2232804E15,5.887309E15,2.9587772E15,3.198148E14,9.4669535E14,1.0913072E15,0E0,0E0,0E0,0E0,0E0,0E0,0E0,0E0,0E0,0E0,0E0,0E0,0E0,0E0,0E0],"parents":[2147483647,0,0,1,1,2,2,3,3,4,4,5,5,6,6,7,7,8,8,9,9,10,10,11,11,12,12,13,13],"right_children":[2,4,6,8,10,12,14,16,18,20,22,24,26,28,-1,-1,-1,-1,-1,-1,-1,-1,-1,-1,-1,-1,-1,-1,-1],"split_conditions":[5.1150684E0,2.01E2,2.1E-1,3.1150684E0,2.8E1,1.79E2,8.117808E0,1.6E-1,3.7E1,3.81E2,3.2E1,1.76E2,1.97E2,2.5E1,2.4881255E6,-1.1955928E4,1.2203413E4,-3.4169336E3,1.17888375E5,5.946572E5,2.1053792E6,1.4243711E5,-1.7086072E4,-1.3626192E5,2.398523E5,1.4664906E6,4.034848E5,1.5338452E6,1.5600367E5],"split_indices":[2,5,3,2,0,5,2,3,5,5,0,1,5,0,0,0,0,0,0,0,0,0,0,0,0,0,0,0,0],"split_type":[0,0,0,0,0,0,0,0,0,0,0,0,0,0,0,0,0,0,0,0,0,0,0,0,0,0,0,0,0],"sum_hessian":[2.4944E4,2.4877E4,6.7E1,2.3272E4,1.605E3,5.6E1,1.1E1,2.1676E4,1.596E3,1.37E2,1.468E3,4.2E1,1.4E1,1E1,1E0,2.0128E4,1.548E3,9.84E2,6.12E2,1.31E2,6E0,3.98E2,1.07E3,6E0,3.6E1,2E0,1.2E1,8E0,2E0],"tree_param":{"num_deleted":"0","num_feature":"12","num_nodes":"29","size_leaf_vector":"1"}},{"base_weights":[2.0937117E4,-8.1293457E3,1.0824239E7,-1.1578852E5,2.0205878E6,7.669042E6,3.3135184E7,-1.8941622E5,8.908634E5,4.4203125E5,8.428509E6,-3.6141316E5,1.0597421E7,3.6684997E5,4.0511744E7,-1.3742422E4,-3.5722058E2,2.437808E4,3.0682806E5,-5.8821387E3,1.1118614E5,3.251509E5,1.01782544E6,1.7698781E4,-1.908943E5,5.9177444E5,-7.132985E4,2.388648E6,1.051416E5],"categories":[],"categories_nodes":[],"categories_segments":[],"categories_sizes":[],"default_left":[0,0,0,0,0,0,0,0,0,0,0,0,0,0,0,0,0,0,0,0,0,0,0,0,0,0,0,0,0],"id":33,"left_children":[1,3,5,7,9,11,13,15,17,19,21,23,25,-1,27,-1,-1,-1,-1,-1,-1,-1,-1,-1,-1,-1,-1,-1,-1],"loss_changes":[7.8406974E15,5.4392985E15,4.4623776E15,1.7529725E15,1.2690933E16,1.4148033E15,1.2251808E15,3.4317124E14,3.4073546E15,1.0054054E15,5.5635E15,4.338771E13,6.718918E14,0E0,1.5729137E15,0E0,0E0,0E0,0E0,0E0,0E0,0E0,0E0,0E0,0E0,0E0,0E0,0E0,0E0],"parents":[2147483647,0,0,1,1,2,2,3,3,4,4,5,5,6,6,7,7,8,8,9,9,10,10,11,11,12,12,14,14],"right_children":[2,4,6,8,10,12,14,16,18,20,22,24,26,-1,28,-1,-1,-1,-1,-1,-1,-1,-1,-1,-1,-1,-1,-1,-1],"split_conditions":[5.1150684E0,2.25E2,1.4285715E-1,3.0739727E0,1.6575342E0,2.2E1,1.3E2,3E1,1.5065502E-1,1.0328767E0,1.9085173E-1,1.2E1,2.37E2,3.6684997E5,9.117808E0,-1.3742422E4,-3.5722058E2,2.437808E4,3.0682806E5,-5.8821387E3,1.1118614E5,3.251509E5,1.01782544E6,1.7698781E4,-1.908943E5,5.9177444E5,-7.132985E4,2.388648E6,1.051416E5],"split_indices":[2,5,4,2,2,5,5,5,4,2,4,5,5,0,2,0,0,0,0,0,0,0,0,0,0,0,0,0,0],"split_type":[0,0,0,0,0,0,0,0,0,0,0,0,0,0,0,0,0,0,0,0,0,0,0,0,0,0,0,0,0],"sum_hessian":[2.4968E4,2.4902E4,6.6E1,2.3648E4,1.254E3,5.9E1,7E0,2.2037E4,1.611E3,1.007E3,2.47E2,1.6E1,4.3E1,2E0,5E0,1.5004E4,7.033E3,1.497E3,1.14E2,7.67E2,2.4E2,2.14E2,3.3E1,1.4E1,2E0,3.9E1,4E0,4E0,1E0],"tree_param":{"num_deleted":"0","num_feature":"12","num_nodes":"29","size_leaf_vector":"1"}},{"base_weights":[3.3369607E3,-2.6426521E4,1.140911E7,-1.1534828E5,1.7062532E6,7.1877725E6,2.7741554E7,-1.4980538E5,1.5338566E6,1.642007E7,5.719096E5,2.1565118E6,1.23296E7,1.5678161E7,2.1953678E6,5.0550366E3,-1.4368724E4,2.8759506E4,2.1753108E5,2.786857E6,7.1761756E5,1.7909756E5,-5.7520044E3,1.7786906E5,-5.9807184E4,7.486164E5,1.5087906E5,1.2388269E6,3.499775E5],"categories":[],"categories_nodes":[],"categories_segments":[],"categories_sizes":[],"default_left":[0,0,0,0,0,0,0,0,0,0,0,0,0,0,0,0,0,0,0,0,0,0,0,0,0,0,0,0,0],"id":34,"left_children":[1,3,5,7,9,11,13,15,17,19,21,23,25,27,-1,-1,-1,-1,-1,-1,-1,-1,-1,-1,-1,-1,-1,-1,-1],"loss_changes":[8.4780233E15,3.8379994E15,4.282011E15,1.346684E15,2.0286286E16,1.3445143E15,1.8467994E15,8.0116696E14,1.3071615E15,6.272847E15,2.3369666E15,1.35760854E14,5.9465674E14,5.3722713E14,0E0,0E0,0E0,0E0,0E0,0E0,0E0,0E0,0E0,0E0,0E0,0E0,0E0,0E0,0E0],"parents":[2147483647,0,0,1,1,2,2,3,3,4,4,5,5,6,6,7,7,8,8,9,9,10,10,11,11,12,12,13,13],"right_children":[2,4,6,8,10,12,14,16,18,20,22,24,26,28,-1,-1,-1,-1,-1,-1,-1,-1,-1,-1,-1,-1,-1,-1,-1],"split_conditions":[5.1150684E0,2.25E2,1.9148937E-1,4.1150684E0,2.8E1,8.9E1,1.5625E-1,2.7E1,8.791209E-2,2.4E1,3.1E1,5.6074765E-2,2.37E2,3.2083333E-1,2.1953678E6,5.0550366E3,-1.4368724E4,2.8759506E4,2.1753108E5,2.786857E6,7.1761756E5,1.7909756E5,-5.7520044E3,1.7786906E5,-5.9807184E4,7.486164E5,1.5087906E5,1.2388269E6,3.499775E5],"split_indices":[2,5,3,2,0,5,4,0,4,0,0,3,5,3,0,0,0,0,0,0,0,0,0,0,0,0,0,0,0],"split_type":[0,0,0,0,0,0,0,0,0,0,0,0,0,0,0,0,0,0,0,0,0,0,0,0,0,0,0,0,0],"sum_hessian":[2.4972E4,2.4908E4,6.4E1,2.3693E4,1.215E3,5.2E1,1.2E1,2.3209E4,4.84E2,8.6E1,1.129E3,2.7E1,2.5E1,8E0,4E0,8.219E3,1.499E4,3.62E2,1.22E2,3E0,8.3E1,2.09E2,9.2E2,1.9E1,8E0,1.9E1,6E0,3E0,5E0],"tree_param":{"num_deleted":"0","num_feature":"12","num_nodes":"29","size_leaf_vector":"1"}},{"base_weights":[7.8546377E3,-6.6051284E3,1.8117596E7,-7.030521E4,2.662047E6,2.6177795E6,2.6262284E7,-1.2400874E5,2.4275148E6,1.5936264E6,1.0359317E7,-8.74237E4,2.6724197E5,1.0026206E7,3.2364296E7,8.029729E3,-1.3699773E4,1.3212249E6,7.275002E4,5.7509844E4,3.9099884E5,1.6351929E6,4.085518E5,1.6903936E5,-8.998366E4,9.9158544E5,1.3084515E5,1.8987066E6,4.2432875E5],"categories":[],"categories_nodes":[],"categories_segments":[],"categories_sizes":[],"default_left":[0,0,0,0,0,0,0,0,0,0,0,0,0,0,0,0,0,0,0,0,0,0,0,0,0,0,0,0,0],"id":35,"left_children":[1,3,5,7,9,11,13,15,17,19,21,23,-1,25,27,-1,-1,-1,-1,-1,-1,-1,-1,-1,-1,-1,-1,-1,-1],"loss_changes":[6.564492E15,4.258351E15,2.456075E15,3.2822132E15,4.7862616E15,5.9485268E13,9.634535E14,1.0224763E15,1.1980317E16,1.4101323E15,3.2044015E15,3.577652E13,0E0,3.1136198E14,8.832815E14,0E0,0E0,0E0,0E0,0E0,0E0,0E0,0E0,0E0,0E0,0E0,0E0,0E0,0E0],"parents":[2147483647,0,0,1,1,2,2,3,3,4,4,5,5,6,6,7,7,8,8,9,9,10,10,11,11,13,13,14,14],"right_children":[2,4,6,8,10,12,14,16,18,20,22,24,-1,26,28,-1,-1,-1,-1,-1,-1,-1,-1,-1,-1,-1,-1,-1,-1],"split_conditions":[5.1178083E0,4.1150684E0,4.347826E-2,3.02E2,1.81E2,1.89E2,2.4E1,2.7E1,2.8E1,2.5174826E-1,2.4E1,2.1E1,2.6724197E5,2E1,2.6E1,8.029729E3,-1.3699773E4,1.3212249E6,7.275002E4,5.7509844E4,3.9099884E5,1.6351929E6,4.085518E5,1.6903936E5,-8.998366E4,9.9158544E5,1.3084515E5,1.8987066E6,4.2432875E5],"split_indices":[2,2,3,5,5,1,0,0,0,3,0,0,0,0,0,0,0,0,0,0,0,0,0,0,0,0,0,0,0],"split_type":[0,0,0,0,0,0,0,0,0,0,0,0,0,0,0,0,0,0,0,0,0,0,0,0,0,0,0,0,0],"sum_hessian":[2.5067E4,2.5048E4,1.9E1,2.4465E4,5.83E2,7E0,1.2E1,2.3951E4,5.14E2,5.13E2,7E1,4E0,3E0,4E0,8E0,8.266E3,1.5685E4,1.9E1,4.95E2,4.8E2,3.3E1,5E0,6.5E1,1E0,3E0,1E0,3E0,6E0,2E0],"tree_param":{"num_deleted":"0","num_feature":"12","num_nodes":"29","size_leaf_vector":"1"}},{"base_weights":[-1.32910205E4,-3.5826457E4,8.390271E6,-1.2507958E5,1.1639522E6,6.086966E6,2.0910412E7,2.1336525E5,-2.407251E5,9.94192E6,3.485954E5,2.9069458E6,9.889032E6,-1.5695128E5,2.3931352E7,-5.798711E3,2.6364794E5,-1.1141584E4,-4.2637895E4,1.2794626E6,3.9177284E5,1.1771587E5,-2.1123342E4,7.4220914E4,4.530458E5,6.220429E5,-3.452645E4,1.5167082E6,6.371135E5],"categories":[],"categories_nodes":[],"categories_segments":[],"categories_sizes":[],"default_left":[0,0,0,0,0,0,0,0,0,0,0,0,0,0,0,0,0,0,0,0,0,0,0,0,0,0,0,0,0],"id":36,"left_children":[1,3,5,7,9,11,13,15,17,19,21,23,25,-1,27,-1,-1,-1,-1,-1,-1,-1,-1,-1,-1,-1,-1,-1,-1],"loss_changes":[4.744218E15,2.675532E15,1.8048451E15,9.102433E14,1.2378447E16,6.725107E14,8.016401E14,9.870246E15,1.8962985E14,4.6446915E15,2.4507083E15,2.7543811E14,7.105178E14,0E0,2.5824833E14,0E0,0E0,0E0,0E0,0E0,0E0,0E0,0E0,0E0,0E0,0E0,0E0,0E0,0E0],"parents":[2147483647,0,0,1,1,2,2,3,3,4,4,5,5,6,6,7,7,8,8,9,9,10,10,11,11,12,12,14,14],"right_children":[2,4,6,8,10,12,14,16,18,20,22,24,26,-1,28,-1,-1,-1,-1,-1,-1,-1,-1,-1,-1,-1,-1,-1,-1],"split_conditions":[5.1150684E0,1.93E2,1.9148937E-1,2.5E1,2.8E1,8.9E1,1.9E1,7.6E1,2.6219177E0,2.5E1,3.2E1,1E0,2.37E2,-1.5695128E5,3.438486E-1,-5.798711E3,2.6364794E5,-1.1141584E4,-4.2637895E4,1.2794626E6,3.9177284E5,1.1771587E5,-2.1123342E4,7.4220914E4,4.530458E5,6.220429E5,-3.452645E4,1.5167082E6,6.371135E5],"split_indices":[2,5,3,0,0,5,0,5,2,0,0,10,5,0,3,0,0,0,0,0,0,0,0,0,0,0,0,0,0],"split_type":[0,0,0,0,0,0,0,0,0,0,0,0,0,0,0,0,0,0,0,0,0,0,0,0,0,0,0,0,0],"sum_hessian":[2.5049E4,2.4983E4,6.6E1,2.3254E4,1.729E3,5.7E1,9E0,5.922E3,1.7332E4,1.46E2,1.583E3,3.2E1,2.5E1,1E0,8E0,5.561E3,3.61E2,1.6841E4,4.91E2,1.6E1,1.3E2,4.39E2,1.144E3,2.7E1,5E0,2E1,5E0,4E0,4E0],"tree_param":{"num_deleted":"0","num_feature":"12","num_nodes":"29","size_leaf_vector":"1"}},{"base_weights":[6.9943076E3,-5.8152367E4,2.6544442E6,-1.2356953E5,1.13877E6,1.9633931E6,1.3813121E7,-2.2263605E5,1.8359869E5,4.0874034E5,4.3522675E6,1.5374912E6,5.421373E6,2.6847766E7,8.268522E6,7.7846055E3,-1.2142793E4,-3.984541E2,3.5079406E4,8.121419E5,1.6581436E4,2.4835466E5,-1.4493755E5,1.88992E4,1.193517E5,1.8928186E5,1.4096569E6,4.4647434E5,1.5105575E6,-1.811985E5,4.705281E5],"categories":[],"categories_nodes":[],"categories_segments":[],"categories_sizes":[],"default_left":[0,0,0,0,0,0,0,0,0,0,0,0,0,0,0,0,0,0,0,0,0,0,0,0,0,0,0,0,0,0,0],"id":37,"left_children":[1,3,5,7,9,11,13,15,17,19,21,23,25,27,29,-1,-1,-1,-1,-1,-1,-1,-1,-1,-1,-1,-1,-1,-1,-1,-1],"loss_changes":[4.3304228E15,1.9188644E15,4.622743E15,7.0711436E14,2.9775755E15,8.296654E14,2.3075243E15,1.3444348E14,5.6234252E14,1.2595625E15,1.0620539E15,4.995035E14,2.2026838E15,3.328895E14,3.872278E14,0E0,0E0,0E0,0E0,0E0,0E0,0E0,0E0,0E0,0E0,0E0,0E0,0E0,0E0,0E0,0E0],"parents":[2147483647,0,0,1,1,2,2,3,3,4,4,5,5,6,6,7,7,8,8,9,9,10,10,11,11,12,12,13,13,14,14],"right_children":[2,4,6,8,10,12,14,16,18,20,22,24,26,28,30,-1,-1,-1,-1,-1,-1,-1,-1,-1,-1,-1,-1,-1,-1,-1,-1],"split_conditions":[4.1150684E0,2.1E-1,2.8735632E-1,1.0712329E0,2.1150684E0,5.1150684E0,3.2083333E-1,2.2E1,4.109589E-2,2E1,3.1E1,6.4102565E-3,2.1E-1,2.9535866E-1,1.9E1,7.7846055E3,-1.2142793E4,-3.984541E2,3.5079406E4,8.121419E5,1.6581436E4,2.4835466E5,-1.4493755E5,1.88992E4,1.193517E5,1.8928186E5,1.4096569E6,4.4647434E5,1.5105575E6,-1.811985E5,4.705281E5],"split_indices":[2,3,3,2,2,2,3,0,3,0,0,3,3,3,0,0,0,0,0,0,0,0,0,0,0,0,0,0,0,0,0],"split_type":[0,0,0,0,0,0,0,0,0,0,0,0,0,0,0,0,0,0,0,0,0,0,0,0,0,0,0,0,0,0,0],"sum_hessian":[2.5106E4,2.4504E4,6.02E2,2.3235E4,1.269E3,5.68E2,3.4E1,1.7569E4,5.666E3,1.035E3,2.34E2,5.07E2,6.1E1,9E0,2.5E1,8.91E2,1.6678E4,4.137E3,1.529E3,4E0,1.031E3,2.16E2,1.8E1,2.15E2,2.92E2,5.8E1,3E0,2E0,7E0,2E0,2.3E1],"tree_param":{"num_deleted":"0","num_feature":"12","num_nodes":"31","size_leaf_vector":"1"}},{"base_weights":[1.6741074E4,8.241025E3,3.0387454E7,-5.4841258E4,2.6241605E6,-9.101835E4,3.605882E7,-8.565779E4,3.4485175E6,6.4221806E5,6.7828595E6,1.8740036E7,2.356546E6,-9.964435E3,1.7902129E4,1.6432885E6,8.4194305E4,1.2634511E4,2.0233994E5,6.202742E5,2.170264E5,2.320762E5,1.0946184E6],"categories":[],"categories_nodes":[],"categories_segments":[],"categories_sizes":[],"default_left":[0,0,0,0,0,0,0,0,0,0,0,0,0,0,0,0,0,0,0,0,0,0,0],"id":38,"left_children":[1,3,5,7,9,-1,11,13,15,17,19,21,-1,-1,-1,-1,-1,-1,-1,-1,-1,-1,-1],"loss_changes":[6.458468E15,4.1277438E15,1.3442764E15,2.6372514E15,4.85036E15,0E0,2.6729675E14,1.220844E15,1.1001617E16,5.29449E14,2.5552935E15,7.615876E13,0E0,0E0,0E0,0E0,0E0,0E0,0E0,0E0,0E0,0E0,0E0],"parents":[2147483647,0,0,1,1,2,2,3,3,4,4,6,6,7,7,8,8,9,9,10,10,11,11],"right_children":[2,4,6,8,10,-1,12,14,16,18,20,22,-1,-1,-1,-1,-1,-1,-1,-1,-1,-1,-1],"split_conditions":[7.1178083E0,4.1150684E0,2.970297E-2,3.81E2,9.1E1,-9.101835E4,1.59E2,7.6E1,3E1,1.3705584E-1,2.4E1,1E0,2.356546E6,-9.964435E3,1.7902129E4,1.6432885E6,8.4194305E4,1.2634511E4,2.0233994E5,6.202742E5,2.170264E5,2.320762E5,1.0946184E6],"split_indices":[2,2,4,5,5,0,5,5,0,4,0,10,0,0,0,0,0,0,0,0,0,0,0],"split_type":[0,0,0,0,0,0,0,0,0,0,0,0,0,0,0,0,0,0,0,0,0,0,0],"sum_hessian":[2.5018E4,2.5012E4,6E0,2.4424E4,5.88E2,1E0,5E0,2.4212E4,2.12E2,3.99E2,1.89E2,3E0,2E0,1.9276E4,4.936E3,1.1E1,2.01E2,3.59E2,4E1,5.6E1,1.33E2,1E0,2E0],"tree_param":{"num_deleted":"0","num_feature":"12","num_nodes":"23","size_leaf_vector":"1"}},{"base_weights":[2.4700244E4,-7.5915875E4,1.3962734E6,-1.23548914E5,9.4789944E5,1.3266492E6,4.0477332E7,-2.2208834E5,5.894127E4,5.4389544E5,5.4520865E6,1.2654041E6,3.5630852E7,1.8367683E5,2.8521232E6,-9.89064E3,-1.8430217E4,2.0488625E3,9.292718E4,-6.836939E3,8.2000875E4,-9.820483E3,4.704981E5,4.7645324E4,2.5503523E5,2.6821728E6,-9.858825E3],"categories":[],"categories_nodes":[],"categories_segments":[],"categories_sizes":[],"default_left":[0,0,0,0,0,0,0,0,0,0,0,0,0,0,0,0,0,0,0,0,0,0,0,0,0,0,0],"id":39,"left_children":[1,3,5,7,9,11,13,15,17,19,21,23,25,-1,-1,-1,-1,-1,-1,-1,-1,-1,-1,-1,-1,-1,-1],"loss_changes":[3.444783E15,1.1342527E15,4.588298E15,3.996377E14,1.8786141E15,3.5349597E15,1.6194314E15,5.1254596E13,2.5185665E14,7.089795E14,1.9021122E15,2.0350245E15,1.9466453E15,0E0,0E0,0E0,0E0,0E0,0E0,0E0,0E0,0E0,0E0,0E0,0E0,0E0,0E0],"parents":[2147483647,0,0,1,1,2,2,3,3,4,4,5,5,6,6,7,7,8,8,9,9,10,10,11,11,12,12],"right_children":[2,4,6,8,10,12,14,16,18,20,22,24,26,-1,-1,-1,-1,-1,-1,-1,-1,-1,-1,-1,-1,-1,-1],"split_conditions":[1.93E2,1.4893617E-1,7.5E-1,2.3E1,1.45E2,3.3333334E-1,2.4409449E-1,1E0,3.5714287E-1,4.3E1,1.641791E-1,2.9535866E-1,3.0120483E-1,1.8367683E5,2.8521232E6,-9.89064E3,-1.8430217E4,2.0488625E3,9.292718E4,-6.836939E3,8.2000875E4,-9.820483E3,4.704981E5,4.7645324E4,2.5503523E5,2.6821728E6,-9.858825E3],"split_indices":[5,4,3,5,5,4,4,7,3,5,3,3,3,0,0,0,0,0,0,0,0,0,0,0,0,0,0],"split_type":[0,0,0,0,0,0,0,0,0,0,0,0,0,0,0,0,0,0,0,0,0,0,0,0,0,0,0],"sum_hessian":[2.496E4,2.3255E4,1.705E3,2.2222E4,1.033E3,1.703E3,2E0,1.443E4,7.792E3,9.49E2,8.4E1,1.701E3,2E0,1E0,1E0,1.2381E4,2.049E3,7.716E3,7.6E1,5.86E2,3.63E2,3.5E1,4.9E1,1.574E3,1.27E2,1E0,1E0],"tree_param":{"num_deleted":"0","num_feature":"12","num_nodes":"27","size_leaf_vector":"1"}},{"base_weights":[1.5987323E4,7.509482E3,2.3598624E7,-5.1285527E4,2.4270005E6,1.0848466E7,2.2741392E6,-8.783951E4,2.509874E6,1.3394278E6,1.0682599E7,2.5847885E6,1.0502554E6,6.2450347E3,-1.3422692E4,9.806687E5,4.365007E4,5.073292E4,5.501858E5,3.0767622E5,1.265028E6,-5.91036E4,2.7450262E5],"categories":[],"categories_nodes":[],"categories_segments":[],"categories_sizes":[],"default_left":[0,0,0,0,0,0,0,0,0,0,0,0,0,0,0,0,0,0,0,0,0,0,0],"id":40,"left_children":[1,3,5,7,9,11,-1,13,15,17,19,21,-1,-1,-1,-1,-1,-1,-1,-1,-1,-1,-1],"loss_changes":[5.007066E15,3.5617375E15,2.0178197E15,2.288682E15,5.3189584E15,5.3322475E14,0E0,9.260887E14,9.613586E15,1.6397721E15,4.4125146E15,6.1208263E13,0E0,0E0,0E0,0E0,0E0,0E0,0E0,0E0,0E0,0E0,0E0],"parents":[2147483647,0,0,1,1,2,2,3,3,4,4,5,5,7,7,8,8,9,9,10,10,11,11],"right_children":[2,4,6,8,10,12,-1,14,16,18,20,22,-1,-1,-1,-1,-1,-1,-1,-1,-1,-1,-1],"split_conditions":[7.1178083E0,4.1150684E0,2.01E2,3.42E2,1.81E2,1E0,2.2741392E6,2.9E1,3E1,3.0994153E-1,1.3169643E-1,1.82E2,1.0502554E6,6.2450347E3,-1.3422692E4,9.806687E5,4.365007E4,5.073292E4,5.501858E5,3.0767622E5,1.265028E6,-5.91036E4,2.7450262E5],"split_indices":[2,2,5,5,5,10,0,0,0,3,4,1,0,0,0,0,0,0,0,0,0,0,0],"split_type":[0,0,0,0,0,0,0,0,0,0,0,0,0,0,0,0,0,0,0,0,0,0,0],"sum_hessian":[2.5044E4,2.5036E4,8E0,2.4443E4,5.93E2,6E0,2E0,2.41E4,3.43E2,5.25E2,6.8E1,4E0,2E0,1.1066E4,1.3034E4,2.9E1,3.14E2,5.09E2,1.6E1,5.3E1,1.5E1,2E0,2E0],"tree_param":{"num_deleted":"0","num_feature":"12","num_nodes":"23","size_leaf_vector":"1"}},{"base_weights":[2.3047332E3,-7.770819E4,1.4520811E6,-1.6637198E5,3.019236E5,1.188266E6,1.6231422E7,-2.5150986E5,-8.162113E4,2.691886E5,5.733241E6,1.3905265E4,2.7372185E6,2.3865305E6,2.8723694E7,-9.056487E3,-1.6333346E4,-5.7413154E3,1.0848359E4,2.5918748E3,4.714152E4,8.0809294E5,1.3142355E5,-9.935128E3,4.1336332E4,1.279854E5,1.7361726E6,7.668393E5,-8.685996E4,7.9266825E5,2.5250508E6],"categories":[],"categories_nodes":[],"categories_segments":[],"categories_sizes":[],"default_left":[0,0,0,0,0,0,0,0,0,0,0,0,0,0,0,0,0,0,0,0,0,0,0,0,0,0,0,0,0,0,0],"id":41,"left_children":[1,3,5,7,9,11,13,15,17,19,21,23,25,27,29,-1,-1,-1,-1,-1,-1,-1,-1,-1,-1,-1,-1,-1,-1,-1,-1],"loss_changes":[2.9186941E15,8.026633E14,5.111817E15,1.3946245E14,8.011978E14,2.3537854E15,3.9093947E15,5.0948043E13,9.60882E13,6.57216E14,8.317375E14,1.2752685E14,3.079385E15,6.674833E14,2.562765E15,0E0,0E0,0E0,0E0,0E0,0E0,0E0,0E0,0E0,0E0,0E0,0E0,0E0,0E0,0E0,0E0],"parents":[2147483647,0,0,1,1,2,2,3,3,4,4,5,5,6,6,7,7,8,8,9,9,10,10,11,11,12,12,13,13,14,14],"right_children":[2,4,6,8,10,12,14,16,18,20,22,24,26,28,30,-1,-1,-1,-1,-1,-1,-1,-1,-1,-1,-1,-1,-1,-1,-1,-1],"split_conditions":[1.5065502E-1,8.2E1,5.0769234E-1,3E0,4.2424244E-1,8.1E1,2.63E2,1.83E2,1.5789473E-1,1.88E2,8.163265E-2,4.6E1,3.3333334E-1,1.6546762E-1,7.5E-1,-9.056487E3,-1.6333346E4,-5.7413154E3,1.0848359E4,2.5918748E3,4.714152E4,8.0809294E5,1.3142355E5,-9.935128E3,4.1336332E4,1.279854E5,1.7361726E6,7.668393E5,-8.685996E4,7.9266825E5,2.5250508E6],"split_indices":[4,5,3,5,3,5,5,1,3,1,4,5,4,4,3,0,0,0,0,0,0,0,0,0,0,0,0,0,0,0,0],"split_type":[0,0,0,0,0,0,0,0,0,0,0,0,0,0,0,0,0,0,0,0,0,0,0,0,0,0,0,0,0,0,0],"sum_hessian":[2.5159E4,2.3844E4,1.315E3,1.933E4,4.514E3,1.293E3,2.2E1,9.642E3,9.688E3,4.488E3,2.6E1,7.36E2,5.57E2,1.1E1,1.1E1,4.981E3,4.661E3,8.719E3,9.69E2,3.394E3,1.094E3,5E0,2.1E1,5.84E2,1.52E2,5.55E2,2E0,2E0,9E0,8E0,3E0],"tree_param":{"num_deleted":"0","num_feature":"12","num_nodes":"31","size_leaf_vector":"1"}},{"base_weights":[-7.073011E3,-6.5068875E4,2.373308E6,-1.0053807E5,1.7356391E6,1.252707E6,1.0353861E7,-1.6627405E5,2.411685E5,3.73739E5,7.9158705E6,8.8543794E5,9.182351E6,5.880137E6,2.1915224E7,-1.2943518E4,-4.1993203E3,-1.696066E3,8.070537E4,1.3675125E5,2.7523174E3,2.6256672E5,1.6452809E6,-1.3002283E4,1.1902579E5,-1.2411806E5,7.7845106E5,-6.98414E4,3.7828697E5,1.3181488E6,-1.233259E5],"categories":[],"categories_nodes":[],"categories_segments":[],"categories_sizes":[],"default_left":[0,0,0,0,0,0,0,0,0,0,0,0,0,0,0,0,0,0,0,0,0,0,0,0,0,0,0,0,0,0,0],"id":42,"left_children":[1,3,5,7,9,11,13,15,17,19,21,23,25,27,29,-1,-1,-1,-1,-1,-1,-1,-1,-1,-1,-1,-1,-1,-1,-1,-1],"loss_changes":[3.4477335E15,1.5573168E15,5.299181E15,5.371164E14,3.9613815E15,1.5120967E15,3.6468675E15,1.5277269E14,1.45715E15,2.9107644E14,5.4870194E15,8.5691255E14,1.7521174E15,6.729356E14,2.2339027E15,0E0,0E0,0E0,0E0,0E0,0E0,0E0,0E0,0E0,0E0,0E0,0E0,0E0,0E0,0E0,0E0],"parents":[2147483647,0,0,1,1,2,2,3,3,4,4,5,5,6,6,7,7,8,8,9,9,10,10,11,11,12,12,13,13,14,14],"right_children":[2,4,6,8,10,12,14,16,18,20,22,24,26,28,30,-1,-1,-1,-1,-1,-1,-1,-1,-1,-1,-1,-1,-1,-1,-1,-1],"split_conditions":[4.1150684E0,3.13E2,1.81E2,1.6164384E0,2.0575342E0,2.8735632E-1,1.3169643E-1,7E0,9.8E1,1.74E2,2.1763085E-1,3.7E1,7.4074075E-2,1.79E2,2.93E2,-1.2943518E4,-4.1993203E3,-1.696066E3,8.070537E4,1.3675125E5,2.7523174E3,2.6256672E5,1.6452809E6,-1.3002283E4,1.1902579E5,-1.2411806E5,7.7845106E5,-6.98414E4,3.7828697E5,1.3181488E6,-1.233259E5],"split_indices":[2,5,5,2,2,3,4,5,5,1,4,5,4,1,5,0,0,0,0,0,0,0,0,0,0,0,0,0,0,0,0],"split_type":[0,0,0,0,0,0,0,0,0,0,0,0,0,0,0,0,0,0,0,0,0,0,0,0,0,0,0,0,0,0,0],"sum_hessian":[2.4972E4,2.4379E4,5.93E2,2.3909E4,4.7E2,5.21E2,7.2E1,2.0052E4,3.857E3,3.86E2,8.4E1,4.99E2,2.2E1,5.3E1,1.9E1,9.434E3,1.0618E4,3.214E3,6.43E2,4.5E1,3.41E2,7.7E1,7E0,2.83E2,2.16E2,8E0,1.4E1,1E1,4.3E1,1.6E1,3E0],"tree_param":{"num_deleted":"0","num_feature":"12","num_nodes":"31","size_leaf_vector":"1"}},{"base_weights":[1.6763936E4,5.411606E3,1.6760465E7,-9.349977E4,1.3007084E6,9.405548E6,2.867689E7,-1.3363673E5,6.656832E5,1.1349274E6,2.3734116E7,1.4351534E6,1.713675E7,5.2323106E5,1.7583434E6,-7.4613394E3,2.1443672E4,-2.0217512E3,1.3753884E5,1.7749236E4,1.857741E5,6.623007E5,2.713956E6,1.1376681E5,-9.01486E4,1.3057632E6,-2.73426E4],"categories":[],"categories_nodes":[],"categories_segments":[],"categories_sizes":[],"default_left":[0,0,0,0,0,0,0,0,0,0,0,0,0,0,0,0,0,0,0,0,0,0,0,0,0,0,0],"id":43,"left_children":[1,3,5,7,9,11,13,15,17,19,21,23,25,-1,-1,-1,-1,-1,-1,-1,-1,-1,-1,-1,-1,-1,-1],"loss_changes":[4.7692074E15,3.2127204E15,1.2202319E15,7.099786E14,6.589223E15,7.1485496E14,3.4117502E14,1.9411685E14,1.7227286E15,3.5550942E15,3.4456864E15,2.3146688E13,9.669158E14,0E0,0E0,0E0,0E0,0E0,0E0,0E0,0E0,0E0,0E0,0E0,0E0,0E0,0E0],"parents":[2147483647,0,0,1,1,2,2,3,3,4,4,5,5,6,6,7,7,8,8,9,9,10,10,11,11,12,12],"right_children":[2,4,6,8,10,12,14,16,18,20,22,24,26,-1,-1,-1,-1,-1,-1,-1,-1,-1,-1,-1,-1,-1,-1],"split_conditions":[5.1178083E0,3.1150684E0,2.1E-1,1.4893617E-1,3.59E2,1.79E2,1E0,2.63E2,1.0328767E0,9.8E1,2.1428572E-1,7.1178083E0,1.6964285E-1,5.2323106E5,1.7583434E6,-7.4613394E3,2.1443672E4,-2.0217512E3,1.3753884E5,1.7749236E4,1.857741E5,6.623007E5,2.713956E6,1.1376681E5,-9.01486E4,1.3057632E6,-2.73426E4],"split_indices":[2,2,3,4,5,5,10,5,2,5,3,2,3,0,0,0,0,0,0,0,0,0,0,0,0,0,0],"split_type":[0,0,0,0,0,0,0,0,0,0,0,0,0,0,0,0,0,0,0,0,0,0,0,0,0,0,0],"sum_hessian":[2.509E4,2.5074E4,1.6E1,2.3296E4,1.778E3,1.1E1,5E0,2.2127E4,1.169E3,1.766E3,1.2E1,6E0,5E0,2E0,3E0,2.1531E4,5.96E2,8.74E2,2.95E2,1.357E3,4.09E2,1E1,2E0,5E0,1E0,3E0,2E0],"tree_param":{"num_deleted":"0","num_feature":"12","num_nodes":"27","size_leaf_vector":"1"}},{"base_weights":[1.1365391E4,5.263849E2,1.5035402E7,-8.988457E4,1.1725292E6,4.2083566E5,2.0624018E7,-1.1924973E5,1.3859786E6,1.0354579E6,2.8136696E7,-1.313003E5,2.1715062E5,1.6924056E6,1.3271978E7,2.0680916E3,-1.2226135E4,5.976583E5,2.489253E4,2.7842863E4,2.3436561E5,1.9041536E6,-2.2252088E5,2.57544E4,9.332817E5],"categories":[],"categories_nodes":[],"categories_segments":[],"categories_sizes":[],"default_left":[0,0,0,0,0,0,0,0,0,0,0,0,0,0,0,0,0,0,0,0,0,0,0,0,0],"id":44,"left_children":[1,3,5,7,9,11,13,15,17,19,21,-1,-1,-1,23,-1,-1,-1,-1,-1,-1,-1,-1,-1,-1],"loss_changes":[4.0659215E15,2.6439604E15,1.4614735E15,1.00411235E15,6.575646E15,8.310629E13,8.1468174E14,4.5702234E14,4.2360763E15,3.10669E15,3.0865992E15,0E0,0E0,0E0,6.7844833E14,0E0,0E0,0E0,0E0,0E0,0E0,0E0,0E0,0E0,0E0],"parents":[2147483647,0,0,1,1,2,2,3,3,4,4,5,5,6,6,7,7,8,8,9,9,10,10,14,14],"right_children":[2,4,6,8,10,12,14,16,18,20,22,-1,-1,-1,24,-1,-1,-1,-1,-1,-1,-1,-1,-1,-1],"split_conditions":[5.1178083E0,3.0739727E0,2.970297E-2,3.13E2,3.81E2,1.89E2,1E0,2.9E1,3E1,1.3169643E-1,3E1,-1.313003E5,2.1715062E5,1.6924056E6,2.4E1,2.0680916E3,-1.2226135E4,5.976583E5,2.489253E4,2.7842863E4,2.3436561E5,1.9041536E6,-2.2252088E5,2.57544E4,9.332817E5],"split_indices":[2,2,4,5,5,1,11,0,0,4,0,0,0,0,0,0,0,0,0,0,0,0,0,0,0],"split_type":[0,0,0,0,0,0,0,0,0,0,0,0,0,0,0,0,0,0,0,0,0,0,0,0,0],"sum_hessian":[2.4967E4,2.495E4,1.7E1,2.3164E4,1.786E3,5E0,1.2E1,2.2713E4,4.51E2,1.778E3,8E0,3E0,2E0,3E0,9E0,9.953E3,1.276E4,3.4E1,4.17E2,1.573E3,2.05E2,6E0,2E0,3E0,6E0],"tree_param":{"num_deleted":"0","num_feature":"12","num_nodes":"25","size_leaf_vector":"1"}},{"base_weights":[-3.274247E3,-4.331853E4,1.6213184E6,2.2551281E5,-1.8997117E5,3.2826784E5,5.2842435E6,-2.5563648E4,4.33846E6,-2.112013E5,1.176034E6,1.0242216E5,6.8107395E6,1.0751186E7,8.754909E5,-1.046569E4,4.6402668E4,8.547705E5,1.8410005E5,-7.071664E3,-1.7552342E4,2.2168058E5,-2.14996E4,1.0430512E5,-1.5671971E4,6.6925056E5,4.7033434E4,-2.3641873E4,9.350831E5,-1.5613878E4,5.085656E5],"categories":[],"categories_nodes":[],"categories_segments":[],"categories_sizes":[],"default_left":[0,0,0,0,0,0,0,0,0,0,0,0,0,0,0,0,0,0,0,0,0,0,0,0,0,0,0,0,0,0,0],"id":45,"left_children":[1,3,5,7,9,11,13,15,17,19,21,23,25,27,29,-1,-1,-1,-1,-1,-1,-1,-1,-1,-1,-1,-1,-1,-1,-1,-1],"loss_changes":[1.6280227E15,9.629154E14,2.8495468E15,8.9027097E15,4.5854272E14,6.5226346E14,3.7746637E15,1.424091E15,4.0907663E15,1.5178482E14,1.2679907E15,3.570264E14,5.662808E14,6.255387E15,9.7480927E14,0E0,0E0,0E0,0E0,0E0,0E0,0E0,0E0,0E0,0E0,0E0,0E0,0E0,0E0,0E0,0E0],"parents":[2147483647,0,0,1,1,2,2,3,3,4,4,5,5,6,6,7,7,8,8,9,9,10,10,11,11,12,12,13,13,14,14],"right_children":[2,4,6,8,10,12,14,16,18,20,22,24,26,28,30,-1,-1,-1,-1,-1,-1,-1,-1,-1,-1,-1,-1,-1,-1,-1,-1],"split_conditions":[2.8735632E-1,2.7E1,1.4594595E-1,1.02E2,3.59E2,1.95E2,3E1,3E1,2.2E1,5.1E1,3.3E1,2.5E1,2.8E1,4.2E1,4.64E2,-1.046569E4,4.6402668E4,8.547705E5,1.8410005E5,-7.071664E3,-1.7552342E4,2.2168058E5,-2.14996E4,1.0430512E5,-1.5671971E4,6.6925056E5,4.7033434E4,-2.3641873E4,9.350831E5,-1.5613878E4,5.085656E5],"split_indices":[3,0,4,5,5,1,0,5,0,5,0,0,0,5,5,0,0,0,0,0,0,0,0,0,0,0,0,0,0,0,0],"split_type":[0,0,0,0,0,0,0,0,0,0,0,0,0,0,0,0,0,0,0,0,0,0,0,0,0,0,0,0,0,0,0],"sum_hessian":[2.5023E4,2.4422E4,6.01E2,8.62E3,1.5802E4,4.45E2,1.56E2,8.125E3,4.95E2,1.5561E4,2.41E2,4.31E2,1.4E1,6.9E1,8.7E1,6.813E3,1.312E3,2.3E1,4.72E2,1.0383E4,5.178E3,7.9E1,1.62E2,7.4E1,3.57E2,6E0,8E0,2.9E1,4E1,7.8E1,9E0],"tree_param":{"num_deleted":"0","num_feature":"12","num_nodes":"31","size_leaf_vector":"1"}},{"base_weights":[-3.5190848E2,-7.797955E3,2.665761E7,-5.482299E4,1.9806678E6,1.3057625E7,2.021919E6,-1.0808256E5,8.2405625E5,1.4479871E6,1.2411347E7,7.29215E5,1.7377311E5,-6.2153945E3,4.9875324E4,-3.2154037E2,1.3446475E5,4.6898285E4,5.665166E5,1.2796192E6,2.9296566E5],"categories":[],"categories_nodes":[],"categories_segments":[],"categories_sizes":[],"default_left":[0,0,0,0,0,0,0,0,0,0,0,0,0,0,0,0,0,0,0,0,0],"id":46,"left_children":[1,3,5,7,9,11,-1,13,15,17,19,-1,-1,-1,-1,-1,-1,-1,-1,-1,-1],"loss_changes":[4.975918E15,2.343504E15,7.8389864E14,1.1461073E15,3.19908E15,2.2457042E13,0E0,4.1423527E14,2.1671474E15,2.7715676E15,2.2681985E15,0E0,0E0,0E0,0E0,0E0,0E0,0E0,0E0,0E0,0E0],"parents":[2147483647,0,0,1,1,2,2,3,3,4,4,5,5,7,7,8,8,9,9,10,10],"right_children":[2,4,6,8,10,12,-1,14,16,18,20,-1,-1,-1,-1,-1,-1,-1,-1,-1,-1],"split_conditions":[7.1178083E0,4.1150684E0,1.59E2,1.4423077E-1,2.8735632E-1,1.86E2,2.021919E6,3.13E2,1.0328767E0,2.42E2,3.2083333E-1,7.29215E5,1.7377311E5,-6.2153945E3,4.9875324E4,-3.2154037E2,1.3446475E5,4.6898285E4,5.665166E5,1.2796192E6,2.9296566E5],"split_indices":[2,2,5,4,3,1,0,5,2,5,3,0,0,0,0,0,0,0,0,0,0],"split_type":[0,0,0,0,0,0,0,0,0,0,0,0,0,0,0,0,0,0,0,0,0],"sum_hessian":[2.5066E4,2.506E4,6E0,2.4482E4,5.78E2,4E0,2E0,2.3084E4,1.398E3,5.51E2,2.7E1,3E0,1E0,2.2751E4,3.33E2,9.68E2,4.3E2,5.25E2,2.6E1,8E0,1.9E1],"tree_param":{"num_deleted":"0","num_feature":"12","num_nodes":"21","size_leaf_vector":"1"}},{"base_weights":[3.010948E3,-1.6424068E4,6.74719E6,-4.0154465E4,2.8807525E6,4.1502852E6,1.8213888E7,-9.852456E4,7.411067E5,3.0008196E7,1.01929944E6,2.4391E6,1.0791767E7,3.5400575E6,2.6942526E7,2.982196E3,-1.0633269E4,1.8897538E5,6.687828E3,-2.5367E3,1.9515474E6,1.2410756E5,-5.430184E4,1.7086397E5,-3.426166E5,7.467296E5,1.002447E5,4.1351422E5,-1.9734655E5,1.5651866E6,-8.9647805E4],"categories":[],"categories_nodes":[],"categories_segments":[],"categories_sizes":[],"default_left":[0,0,0,0,0,0,0,0,0,0,0,0,0,0,0,0,0,0,0,0,0,0,0,0,0,0,0,0,0,0,0],"id":47,"left_children":[1,3,5,7,9,11,13,15,17,19,21,23,25,27,29,-1,-1,-1,-1,-1,-1,-1,-1,-1,-1,-1,-1,-1,-1,-1,-1],"loss_changes":[3.2842815E15,1.717863E15,2.0684173E15,1.1302346E15,1.0220196E16,6.5556616E14,1.5696954E15,4.1634396E14,3.1790725E15,3.5277648E15,5.9093656E14,4.6876186E14,4.068875E14,2.4513316E14,1.0586971E15,0E0,0E0,0E0,0E0,0E0,0E0,0E0,0E0,0E0,0E0,0E0,0E0,0E0,0E0,0E0,0E0],"parents":[2147483647,0,0,1,1,2,2,3,3,4,4,5,5,6,6,7,7,8,8,9,9,10,10,11,11,12,12,13,13,14,14],"right_children":[2,4,6,8,10,12,14,16,18,20,22,24,26,28,30,-1,-1,-1,-1,-1,-1,-1,-1,-1,-1,-1,-1,-1,-1,-1,-1],"split_conditions":[5.1150684E0,3.81E2,1.5065502E-1,1.3169643E-1,3E1,1E0,1.3E2,2.8E1,2.5E1,1.15068495E-1,3.5E1,1.3559322E-1,1.87E2,2.4E1,9.117808E0,2.982196E3,-1.0633269E4,1.8897538E5,6.687828E3,-2.5367E3,1.9515474E6,1.2410756E5,-5.430184E4,1.7086397E5,-3.426166E5,7.467296E5,1.002447E5,4.1351422E5,-1.9734655E5,1.5651866E6,-8.9647805E4],"split_indices":[2,5,4,4,0,10,5,0,0,2,0,4,1,0,2,0,0,0,0,0,0,0,0,0,0,0,0,0,0,0,0],"split_type":[0,0,0,0,0,0,0,0,0,0,0,0,0,0,0,0,0,0,0,0,0,0,0,0,0,0,0,0,0,0,0],"sum_hessian":[2.5055E4,2.4984E4,7.1E1,2.4782E4,2.02E2,5.9E1,1.2E1,2.306E4,1.722E3,1.2E1,1.9E2,4.8E1,1.1E1,5E0,7E0,9.666E3,1.3394E4,2.86E2,1.436E3,3E0,9E0,1.12E2,7.8E1,4.4E1,4E0,7E0,4E0,3E0,2E0,6E0,1E0],"tree_param":{"num_deleted":"0","num_feature":"12","num_nodes":"31","size_leaf_vector":"1"}},{"base_weights":[7.272876E3,-1.2750345E4,6.311454E6,-7.030311E4,1.3182325E6,3.707235E6,1.92477E7,2.3659794E5,-1.7134488E5,1.5912184E7,3.3589016E5,8.882132E5,7.1544215E6,-1.7306675E5,2.1428566E7,1.3025575E3,3.5059E5,-7.4134414E3,-4.6013242E4,-2.2314186E5,9.224092E5,2.110485E5,-7.619708E3,1.6794451E4,3.610016E5,6.473761E5,2.4907668E4,4.5720675E5,1.3213882E6],"categories":[],"categories_nodes":[],"categories_segments":[],"categories_sizes":[],"default_left":[0,0,0,0,0,0,0,0,0,0,0,0,0,0,0,0,0,0,0,0,0,0,0,0,0,0,0,0,0],"id":48,"left_children":[1,3,5,7,9,11,13,15,17,19,21,23,25,-1,27,-1,-1,-1,-1,-1,-1,-1,-1,-1,-1,-1,-1,-1,-1],"loss_changes":[3.1496455E15,1.9054079E15,2.590061E15,7.3940775E14,1.4775336E16,6.447308E14,7.180004E14,8.424709E15,3.098701E14,3.4409496E15,1.835065E15,1.3046909E14,1.150363E15,0E0,4.952881E14,0E0,0E0,0E0,0E0,0E0,0E0,0E0,0E0,0E0,0E0,0E0,0E0,0E0,0E0],"parents":[2147483647,0,0,1,1,2,2,3,3,4,4,5,5,6,6,7,7,8,8,9,9,10,10,11,11,12,12,14,14],"right_children":[2,4,6,8,10,12,14,16,18,20,22,24,26,-1,28,-1,-1,-1,-1,-1,-1,-1,-1,-1,-1,-1,-1,-1,-1],"split_conditions":[5.1150684E0,2.42E2,2.1E-1,2.5E1,2.8E1,8.9E1,1.9E1,1.08E2,2.6219177E0,1.15068495E-1,3E1,1.93E2,2.6E1,-1.7306675E5,1.83E2,1.3025575E3,3.5059E5,-7.4134414E3,-4.6013242E4,-2.2314186E5,9.224092E5,2.110485E5,-7.619708E3,1.6794451E4,3.610016E5,6.473761E5,2.4907668E4,4.5720675E5,1.3213882E6],"split_indices":[2,5,3,0,0,5,0,5,2,2,0,1,0,0,1,0,0,0,0,0,0,0,0,0,0,0,0,0,0],"split_type":[0,0,0,0,0,0,0,0,0,0,0,0,0,0,0,0,0,0,0,0,0,0,0,0,0,0,0,0,0],"sum_hessian":[2.495E4,2.4872E4,7.8E1,2.3842E4,1.03E3,6.6E1,1.2E1,5.905E3,1.7937E4,6.4E1,9.66E2,3.7E1,2.9E1,1E0,1.1E1,5.728E3,1.77E2,1.7402E4,5.35E2,7E0,5.7E1,1.07E2,8.59E2,3.5E1,2E0,1.5E1,1.4E1,4E0,7E0],"tree_param":{"num_deleted":"0","num_feature":"12","num_nodes":"29","size_leaf_vector":"1"}},{"base_weights":[7.1790156E3,8.7413135E2,1.9720868E7,-7.63575E4,1.01827456E6,7.3667415E6,1.8927749E6,-9.2685805E4,1.844774E6,6.325231E5,9.58277E6,-5.615315E5,7.741096E5,6.882334E2,-1.2774937E4,9.6681194E5,4.497683E4,1.5942679E4,2.2956473E5,6.615313E5,-1.9278536E5,1.5613211E5,-1.415235E5],"categories":[],"categories_nodes":[],"categories_segments":[],"categories_sizes":[],"default_left":[0,0,0,0,0,0,0,0,0,0,0,0,0,0,0,0,0,0,0,0,0,0,0],"id":49,"left_children":[1,3,5,7,9,11,-1,13,15,17,19,21,-1,-1,-1,-1,-1,-1,-1,-1,-1,-1,-1],"loss_changes":[3.1100304E15,1.9656437E15,1.5134286E15,7.2952744E14,5.8250864E15,3.947427E14,0E0,3.995989E14,3.2231893E15,2.0970866E15,3.776656E15,4.2275195E13,0E0,0E0,0E0,0E0,0E0,0E0,0E0,0E0,0E0,0E0,0E0],"parents":[2147483647,0,0,1,1,2,2,3,3,4,4,5,5,7,7,8,8,9,9,10,10,11,11],"right_children":[2,4,6,8,10,12,-1,14,16,18,20,22,-1,-1,-1,-1,-1,-1,-1,-1,-1,-1,-1],"split_conditions":[7.1178083E0,3.1150684E0,2.01E2,3.81E2,2.42E2,1E0,1.8927749E6,3.2E1,3E1,1.5322581E-1,1E0,2.1E1,7.741096E5,6.882334E2,-1.2774937E4,9.6681194E5,4.497683E4,1.5942679E4,2.2956473E5,6.615313E5,-1.9278536E5,1.5613211E5,-1.415235E5],"split_indices":[2,2,5,5,5,10,0,0,0,4,10,0,0,0,0,0,0,0,0,0,0,0,0],"split_type":[0,0,0,0,0,0,0,0,0,0,0,0,0,0,0,0,0,0,0,0,0,0,0],"sum_hessian":[2.5021E4,2.5014E4,7E0,2.325E4,1.764E3,5E0,2E0,2.3055E4,1.95E2,1.689E3,7.5E1,3E0,2E0,1.3941E4,9.114E3,9E0,1.86E2,1.566E3,1.23E2,5.9E1,1.6E1,1E0,2E0],"tree_param":{"num_deleted":"0","num_feature":"12","num_nodes":"23","size_leaf_vector":"1"}},{"base_weights":[2.9121223E4,9.571937E3,6.714846E6,-4.7719137E4,1.3263769E6,4.2657145E6,2.013125E7,-1.584154E5,1.3410673E5,2.3340887E4,6.771784E6,5.6428665E6,-4.6241845E6,2.2544586E7,-1.000529E5,-7.663685E3,-3.794915E4,2.204775E3,5.0373082E4,-3.7289863E3,3.709338E5,3.021828E5,2.0560589E6,1.1237799E5,5.978894E5,-3.2217006E5,2.482387E5,4.56521E5,1.4982814E6],"categories":[],"categories_nodes":[],"categories_segments":[],"categories_sizes":[],"default_left":[0,0,0,0,0,0,0,0,0,0,0,0,0,0,0,0,0,0,0,0,0,0,0,0,0,0,0,0,0],"id":50,"left_children":[1,3,5,7,9,11,13,15,17,19,21,23,25,27,-1,-1,-1,-1,-1,-1,-1,-1,-1,-1,-1,-1,-1,-1,-1],"loss_changes":[3.2725616E15,1.883603E15,2.312799E15,4.8161065E14,7.386322E15,7.973867E14,6.326527E14,4.5810624E13,7.1178507E14,6.095683E14,4.7786397E15,1.1523846E15,1.8898957E14,7.218718E14,0E0,0E0,0E0,0E0,0E0,0E0,0E0,0E0,0E0,0E0,0E0,0E0,0E0,0E0,0E0],"parents":[2147483647,0,0,1,1,2,2,3,3,4,4,5,5,6,6,7,7,8,8,9,9,10,10,11,11,12,12,13,13],"right_children":[2,4,6,8,10,12,14,16,18,20,22,24,26,28,-1,-1,-1,-1,-1,-1,-1,-1,-1,-1,-1,-1,-1,-1,-1],"split_conditions":[4.7041097E0,2.42E2,1.5065502E-1,2.3E1,2.0575342E0,1.2280702E-1,9.117808E0,4.2424244E-1,2.6219177E0,5E-1,4.71831E-1,8.7E1,1E0,1.5625E-1,-1.000529E5,-7.663685E3,-3.794915E4,2.204775E3,5.0373082E4,-3.7289863E3,3.709338E5,3.021828E5,2.0560589E6,1.1237799E5,5.978894E5,-3.2217006E5,2.482387E5,4.56521E5,1.4982814E6],"split_indices":[2,5,4,5,2,4,2,3,2,3,3,5,10,3,0,0,0,0,0,0,0,0,0,0,0,0,0,0,0],"split_type":[0,0,0,0,0,0,0,0,0,0,0,0,0,0,0,0,0,0,0,0,0,0,0,0,0,0,0,0,0],"sum_hessian":[2.5038E4,2.4966E4,7.2E1,2.3926E4,1.04E3,6.2E1,1E1,1.4872E4,9.054E3,8.4E2,2E2,5.4E1,8E0,9E0,1E0,1.4747E4,1.25E2,8.209E3,8.45E2,8.3E2,1E1,1.97E2,3E0,3.6E1,1.8E1,7E0,1E0,4E0,5E0],"tree_param":{"num_deleted":"0","num_feature":"12","num_nodes":"29","size_leaf_vector":"1"}},{"base_weights":[2.2906965E3,-7.071654E4,7.2080444E5,4.5114634E5,-1.2827562E5,1.0647225E7,2.4908364E5,-5.3115656E4,9.69351E6,-1.40882E5,1.955723E5,8.926586E6,4.2930548E7,2.5291992E6,-3.2891425E5,-1.2616469E4,1.4798198E5,4.2653566E5,2.5324308E6,-6.804699E3,-3.4155938E4,8.4686625E4,-9.644382E3,2.734978E5,9.03485E5,2.788246E5,2.543747E6,9.067193E4,9.203261E5,-1.8929787E4,2.9257653E5],"categories":[],"categories_nodes":[],"categories_segments":[],"categories_sizes":[],"default_left":[0,0,0,0,0,0,0,0,0,0,0,0,0,0,0,0,0,0,0,0,0,0,0,0,0,0,0,0,0,0,0],"id":51,"left_children":[1,3,5,7,9,11,13,15,17,19,21,23,25,27,29,-1,-1,-1,-1,-1,-1,-1,-1,-1,-1,-1,-1,-1,-1,-1,-1],"loss_changes":[1.304072E15,6.779243E14,1.0734317E16,1.0449519E16,8.300947E13,5.3937606E15,2.8870373E15,1.2773343E15,5.092137E15,5.0702324E13,4.4379182E14,3.0615955E15,1.2000729E15,5.001034E15,5.3894478E14,0E0,0E0,0E0,0E0,0E0,0E0,0E0,0E0,0E0,0E0,0E0,0E0,0E0,0E0,0E0,0E0],"parents":[2147483647,0,0,1,1,2,2,3,3,4,4,5,5,6,6,7,7,8,8,9,9,10,10,11,11,12,12,13,13,14,14],"right_children":[2,4,6,8,10,12,14,16,18,20,22,24,26,28,30,-1,-1,-1,-1,-1,-1,-1,-1,-1,-1,-1,-1,-1,-1,-1,-1],"split_conditions":[1.65E2,2.2E1,2.6E1,5.6E1,2.2651933E-1,2.2302158E-1,3E1,3.1E1,1.42E2,1.55E2,2.6E1,2.1E2,1.75E2,3.59E2,5.0769234E-1,-1.2616469E4,1.4798198E5,4.2653566E5,2.5324308E6,-6.804699E3,-3.4155938E4,8.4686625E4,-9.644382E3,2.734978E5,9.03485E5,2.788246E5,2.543747E6,9.067193E4,9.203261E5,-1.8929787E4,2.9257653E5],"split_indices":[5,0,0,5,3,4,0,5,5,5,0,5,5,5,3,0,0,0,0,0,0,0,0,0,0,0,0,0,0,0,0],"split_type":[0,0,0,0,0,0,0,0,0,0,0,0,0,0,0,0,0,0,0,0,0,0,0,0,0,0,0,0,0,0,0],"sum_hessian":[2.4858E4,2.2566E4,2.292E3,2.241E3,2.0325E4,1.03E2,2.189E3,2.126E3,1.15E2,1.9564E4,7.61E2,9.9E1,4E0,4.42E2,1.747E3,1.995E3,1.31E2,1.13E2,2E0,1.9394E4,1.7E2,1.56E2,6.05E2,7.3E1,2.6E1,1E0,3E0,4.24E2,1.8E1,1.734E3,1.3E1],"tree_param":{"num_deleted":"0","num_feature":"12","num_nodes":"31","size_leaf_vector":"1"}},{"base_weights":[6.0284263E3,-1.0218215E3,9.851364E6,-2.3248465E4,2.6629745E6,3.2379195E6,2.25386E7,-1.1098989E5,3.806947E5,2.466682E7,9.479197E5,8.254601E6,9.1105336E4,4.162746E5,1.3781891E6,-2.276415E3,-1.2100116E4,7.724644E3,1.6897744E5,-8.098377E4,1.5686709E6,2.785327E4,4.9828247E5,-1.119782E5,7.998616E5,-1.23536016E5,1.9555336E5],"categories":[],"categories_nodes":[],"categories_segments":[],"categories_sizes":[],"default_left":[0,0,0,0,0,0,0,0,0,0,0,0,0,0,0,0,0,0,0,0,0,0,0,0,0,0,0],"id":52,"left_children":[1,3,5,7,9,11,13,15,17,19,21,23,25,-1,-1,-1,-1,-1,-1,-1,-1,-1,-1,-1,-1,-1,-1],"loss_changes":[1.746001E15,1.4884664E15,1.4373358E15,8.83625E14,7.826081E15,2.044733E14,1.9905858E14,1.7564838E14,3.01744E15,2.695208E15,6.7822446E14,4.4208904E14,9.773784E13,0E0,0E0,0E0,0E0,0E0,0E0,0E0,0E0,0E0,0E0,0E0,0E0,0E0,0E0],"parents":[2147483647,0,0,1,1,2,2,3,